{"learner":{"attributes":{"scikit_learn":"{\"_estimator_type\": \"classifier\"}"},"feature_names":["Fwd Packet Length Max","Fwd Packet Length Min","Bwd Packet Length Min","Flow Bytes/s","Flow IAT Mean","Flow IAT Min","Fwd IAT Total","Fwd IAT Mean","Fwd IAT Min","Bwd IAT Total","Bwd IAT Mean","Bwd IAT Std","Bwd IAT Max","Bwd IAT Min","Fwd PSH Flags","Bwd Header Length","Fwd Packets/s","Bwd Packets/s","Min Packet Length","Packet Length Std","Packet Length Variance","FIN Flag Count","PSH Flag Count","ACK Flag Count","URG Flag Count","Down/Up Ratio","Avg Fwd Segment Size","Subflow Fwd Bytes","Subflow Bwd Bytes","Init_Win_bytes_forward","Init_Win_bytes_backward","act_data_pkt_fwd","Active Mean","Active Max","Active Min","Idle Max"],"feature_types":["float","float","float","float","float","float","float","float","float","float","float","float","float","float","float","float","float","float","float","float","float","float","float","float","float","float","float","float","float","float","float","float","float","float","float","float"],"gradient_booster":{"model":{"gbtree_model_param":{"num_parallel_tree":"1","num_trees":"100"},"iteration_indptr":[0,1,2,3,4,5,6,7,8,9,10,11,12,13,14,15,16,17,18,19,20,21,22,23,24,25,26,27,28,29,30,31,32,33,34,35,36,37,38,39,40,41,42,43,44,45,46,47,48,49,50,51,52,53,54,55,56,57,58,59,60,61,62,63,64,65,66,67,68,69,70,71,72,73,74,75,76,77,78,79,80,81,82,83,84,85,86,87,88,89,90,91,92,93,94,95,96,97,98,99,100],"tree_info":[0,0,0,0,0,0,0,0,0,0,0,0,0,0,0,0,0,0,0,0,0,0,0,0,0,0,0,0,0,0,0,0,0,0,0,0,0,0,0,0,0,0,0,0,0,0,0,0,0,0,0,0,0,0,0,0,0,0,0,0,0,0,0,0,0,0,0,0,0,0,0,0,0,0,0,0,0,0,0,0,0,0,0,0,0,0,0,0,0,0,0,0,0,0,0,0,0,0,0,0],"trees":[{"base_weights":[-3.559783E-4,7.6065147E-1,-1.6420947E0,1.2058558E0,-1.7702909E0,-3.3647788E-1,-1.8158623E0,1.3940712E0,-1.1759399E0,-1.7889462E0,3.5910558E-2,-1.7973223E0,5.7627666E-1,-1.819435E0,1.4440652E0,1.8389349E0,8.166039E-1,-1.8177377E0,7.81763E-1,-1.8048432E0,2.2155483E-1,-1.8318133E-1,2.1511821E-1,-1.8082261E0,1.9023733E-1,-1.7978401E0,7.792538E-1,-1.8475499E0,-1.6589974E0,2.1280615E-1,-1.6731152E-1,1.9534798E0,-8.488628E-1,1.6506602E0,-2.0625271E-1,-1.8359448E0,2.0948286E-1,-1.3509573E0,1.6907442E0,-1.8066428E0,-2.742413E-1,-1.8234977E-1,2.1195123E0,-1.485535E0,-1.8482362E-1,-1.8101278E-1,4.9898E-2,8.0601317E-1,-1.8026413E-1,-1.8503222E-1,-1.7303697E0,-2.914409E-1,-1.7262555E0,1.9915709E-1,-1.5494959E-1,-1.6556962E-1,1.8403885E-1,1.7746238E-1,-9.426349E-2,-1.2365041E-1,1.1297039E-1,-1.8500637E-1,1.8513893E-1,2.1410285E-1,-1.7863044E-1,-1.5244436E-1,1.91368E-1,-1.8308802E-1,-1.725885E-1,1.9393139E-1,-1.7174135E-1,9.772092E-2,2.1455117E-1,-1.7820592E-1,-5.203631E-2,7.877936E-2,1.3674487E-1,-1.8400685E-1,1.1445104E-1,-1.3858095E-1,9.40251E-2,-1.8323568E-1,-9.5427535E-2],"categories":[],"categories_nodes":[],"categories_segments":[],"categories_sizes":[],"default_left":[0,0,0,0,0,0,0,0,0,0,0,0,0,0,0,0,0,0,0,0,0,0,0,0,0,0,0,0,0,0,0,0,0,0,0,0,0,0,0,0,0,0,0,0,0,0,0,0,0,0,0,0,0,0,0,0,0,0,0,0,0,0,0,0,0,0,0,0,0,0,0,0,0,0,0,0,0,0,0,0,0,0,0],"id":0,"left_children":[1,3,5,7,9,11,13,15,17,19,21,23,25,27,29,31,33,35,37,39,41,-1,-1,43,-1,45,47,49,51,-1,-1,53,55,57,59,61,-1,63,65,67,69,-1,71,73,-1,-1,-1,75,-1,-1,77,79,81,-1,-1,-1,-1,-1,-1,-1,-1,-1,-1,-1,-1,-1,-1,-1,-1,-1,-1,-1,-1,-1,-1,-1,-1,-1,-1,-1,-1,-1,-1],"loss_changes":[2.2185358E5,1.3671562E5,1.2759047E4,4.6256734E4,6.1164844E2,8.811133E3,5.8071875E2,2.4564016E4,9.496449E3,5.745703E2,7.4086957E2,1.0594629E2,1.9613706E3,2.2057812E2,1.206051E2,1.6630938E4,3.550096E4,4.0929297E2,3.6206372E3,4.8601562E1,5.5434143E2,0E0,0E0,2.997168E1,0E0,9.952759E0,2.603745E2,1.0484375E1,6.804004E2,0E0,0E0,6.9156562E3,4.7949463E3,7.3704883E3,2.57282E4,2.9838672E2,0E0,8.526162E2,9.4128467E2,3.16875E1,7.396538E1,0E0,1.0171509E-1,8.0533936E1,0E0,0E0,0E0,3.6871338E1,0E0,0E0,3.1439893E2,4.7067105E2,5.7615625E2,0E0,0E0,0E0,0E0,0E0,0E0,0E0,0E0,0E0,0E0,0E0,0E0,0E0,0E0,0E0,0E0,0E0,0E0,0E0,0E0,0E0,0E0,0E0,0E0,0E0,0E0,0E0,0E0,0E0,0E0],"parents":[2147483647,0,0,1,1,2,2,3,3,4,4,5,5,6,6,7,7,8,8,9,9,10,10,11,11,12,12,13,13,14,14,15,15,16,16,17,17,18,18,19,19,20,20,23,23,25,25,26,26,27,27,28,28,31,31,32,32,33,33,34,34,35,35,37,37,38,38,39,39,40,40,42,42,43,43,47,47,50,50,51,51,52,52],"right_children":[2,4,6,8,10,12,14,16,18,20,22,24,26,28,30,32,34,36,38,40,42,-1,-1,44,-1,46,48,50,52,-1,-1,54,56,58,60,62,-1,64,66,68,70,-1,72,74,-1,-1,-1,76,-1,-1,78,80,82,-1,-1,-1,-1,-1,-1,-1,-1,-1,-1,-1,-1,-1,-1,-1,-1,-1,-1,-1,-1,-1,-1,-1,-1,-1,-1,-1,-1,-1,-1],"split_conditions":[7.287287E-1,8.763764E-1,2.007007E-1,9.149149E-1,5.900901E-1,2.1803512E-1,9.992118E-1,5.525526E-1,7.747748E-1,9.899767E-1,5.2180976E-1,9.984638E-1,8.278278E-1,3.3683684E-1,8.963964E-1,1E0,5.6548285E-1,9.867226E-1,8.659702E-1,9.60961E-1,9.709894E-1,-1.8318133E-1,2.1511821E-1,1.5115115E-1,1.9023733E-1,7.7854645E-1,4.5095095E-1,1E0,3.4798592E-1,2.1280615E-1,-1.6731152E-1,9.339339E-1,8.728729E-1,6.686687E-1,6.411411E-1,9.895423E-1,2.0948286E-1,5.6416416E-1,8.019968E-1,9.73974E-1,4.894895E-1,-1.8234977E-1,7.773541E-1,1.8718004E-1,-1.8482362E-1,-1.8101278E-1,4.9898E-2,4.4294295E-1,-1.8026413E-1,-1.8503222E-1,5.720024E-1,8.893894E-1,8.278278E-1,1.9915709E-1,-1.5494959E-1,-1.6556962E-1,1.8403885E-1,1.7746238E-1,-9.426349E-2,-1.2365041E-1,1.1297039E-1,-1.8500637E-1,1.8513893E-1,2.1410285E-1,-1.7863044E-1,-1.5244436E-1,1.91368E-1,-1.8308802E-1,-1.725885E-1,1.9393139E-1,-1.7174135E-1,9.772092E-2,2.1455117E-1,-1.7820592E-1,-5.203631E-2,7.877936E-2,1.3674487E-1,-1.8400685E-1,1.1445104E-1,-1.3858095E-1,9.40251E-2,-1.8323568E-1,-9.5427535E-2],"split_indices":[18,30,3,0,18,16,18,8,30,13,6,18,31,29,0,24,29,4,9,35,30,0,0,3,0,32,27,21,29,0,0,15,30,3,30,10,0,29,29,30,9,0,32,16,0,0,0,27,0,0,7,30,31,0,0,0,0,0,0,0,0,0,0,0,0,0,0,0,0,0,0,0,0,0,0,0,0,0,0,0,0,0,0],"split_type":[0,0,0,0,0,0,0,0,0,0,0,0,0,0,0,0,0,0,0,0,0,0,0,0,0,0,0,0,0,0,0,0,0,0,0,0,0,0,0,0,0,0,0,0,0,0,0,0,0,0,0,0,0,0,0,0,0,0,0,0,0,0,0,0,0,0,0,0,0,0,0,0,0,0,0,0,0,0,0,0,0,0,0],"sum_hessian":[1.7756958E5,1.2132939E5,5.6240184E4,1.0318006E5,1.8149326E4,6.6062803E3,4.9633902E4,9.562403E4,7.556031E3,1.7963797E4,1.855292E2,2.5400364E3,4.0662437E3,4.9580008E4,5.3895363E1,5.4012344E4,4.161169E4,5.6905557E3,1.865475E3,1.7822973E4,1.4082336E2,9.86012E1,8.692801E1,2.533082E3,6.9542403E0,3.196467E2,3.746597E3,4.2178215E4,7.4017954E3,4.4457466E1,9.437898E0,5.1804867E4,2.2074746E3,2.2920928E4,1.8690764E4,5.6647256E3,2.5830036E1,5.573327E2,1.3081423E3,1.7801861E4,2.1111088E1,6.780384E1,7.301952E1,2.8363367E2,2.2494485E3,3.181565E2,1.4901943E0,3.7088455E3,3.775159E1,4.1188973E4,9.892407E2,3.472153E2,7.05458E3,5.124803E4,5.5683594E2,1.6983248E3,5.0914975E2,2.1875557E4,1.0453713E3,1.0552812E4,8.1379517E3,5.6436143E3,2.1111088E1,6.1346336E1,4.9598636E2,8.444435E1,1.223698E3,1.3675762E4,4.1261E3,8.196069E0,1.2915018E1,2.4836574E0,7.0535866E1,2.1632655E2,6.730711E1,3.5945972E3,1.1424824E2,9.5322766E2,3.601303E1,1.8379063E2,1.6342465E2,6.2009473E3,8.53633E2],"tree_param":{"num_deleted":"0","num_feature":"36","num_nodes":"83","size_leaf_vector":"1"}},{"base_weights":[-1.6043745E-3,6.847891E-1,-1.5111763E0,1.08246E0,-1.6311896E0,-3.0597207E-1,-1.6741408E0,1.2496885E0,-1.0792283E0,-1.6485872E0,3.1317413E-2,-1.6566722E0,5.169784E-1,-1.6774776E0,1.2976711E0,1.6455832E0,7.335894E-1,-1.6761734E0,7.041078E-1,-1.6634248E0,2.0048411E-1,-1.690505E-1,1.9262932E-1,-1.6669253E0,1.7256449E-1,-1.6571673E0,6.9788384E-1,-1.7040693E0,-1.52613E0,1.9078575E-1,-1.5515827E-1,1.7467507E0,-7.760516E-1,1.5382421E-1,1.928099E0,-1.6932137E0,1.8812849E-1,-1.2409931E0,1.5135231E0,-1.6651077E0,-2.4955592E-1,-1.683238E-1,1.8997645E-1,-1.36351E0,-1.7047477E-1,-1.6688529E0,4.6810728E-2,7.217239E-1,-1.6650069E-1,-1.706674E-1,-1.5941093E0,-2.6462108E-1,-1.5891519E0,1.7835557E-1,-1.17345035E-1,-1.5220518E-1,1.645253E-1,5.8626164E-2,-1.5177898E-1,1.9909543E-1,-5.4193713E-2,-1.70645E-1,1.6635627E-1,1.9182019E-1,-1.6460358E-1,-1.3997647E-1,1.7106901E-1,-1.6961108E-1,-1.6022597E-1,1.7557567E-1,-1.5904176E-1,-1.6212694E-1,-3.873307E-2,-1.6778506E-1,-1.0434174E-1,6.2456306E-2,8.098457E-2,-1.695255E-1,1.07464604E-1,-1.268938E-1,8.4197804E-2,-1.6895793E-1,-8.679988E-2],"categories":[],"categories_nodes":[],"categories_segments":[],"categories_sizes":[],"default_left":[0,0,0,0,0,0,0,0,0,0,0,0,0,0,0,0,0,0,0,0,0,0,0,0,0,0,0,0,0,0,0,0,0,0,0,0,0,0,0,0,0,0,0,0,0,0,0,0,0,0,0,0,0,0,0,0,0,0,0,0,0,0,0,0,0,0,0,0,0,0,0,0,0,0,0,0,0,0,0,0,0,0,0],"id":1,"left_children":[1,3,5,7,9,11,13,15,17,19,21,23,25,27,29,31,33,35,37,39,41,-1,-1,43,-1,45,47,49,51,-1,-1,53,55,57,59,61,-1,63,65,67,69,-1,-1,71,-1,73,-1,75,-1,-1,77,79,81,-1,-1,-1,-1,-1,-1,-1,-1,-1,-1,-1,-1,-1,-1,-1,-1,-1,-1,-1,-1,-1,-1,-1,-1,-1,-1,-1,-1,-1,-1],"loss_changes":[1.8254727E5,1.1154292E5,1.081507E4,3.736622E4,5.1339844E2,7.2931333E3,4.831875E2,1.9601422E4,7.902786E3,4.8223438E2,6.061875E2,8.902002E1,1.6048492E3,1.9242188E2,9.852646E1,1.3302406E4,2.884331E4,3.4031152E2,2.9336604E3,4.1046875E1,4.5361926E2,0E0,0E0,2.6101074E1,0E0,8.567139E0,2.1328247E2,9.0859375E0,5.760293E2,0E0,0E0,5.603328E3,3.9363806E3,2.027084E4,2.1139883E3,2.4877832E2,0E0,7.040593E2,7.579758E2,3.11875E1,6.1657707E1,0E0,0E0,6.97113E1,0E0,5.004883E-3,0E0,3.1412842E1,0E0,0E0,2.6327002E2,3.858176E2,4.986543E2,0E0,0E0,0E0,0E0,0E0,0E0,0E0,0E0,0E0,0E0,0E0,0E0,0E0,0E0,0E0,0E0,0E0,0E0,0E0,0E0,0E0,0E0,0E0,0E0,0E0,0E0,0E0,0E0,0E0,0E0],"parents":[2147483647,0,0,1,1,2,2,3,3,4,4,5,5,6,6,7,7,8,8,9,9,10,10,11,11,12,12,13,13,14,14,15,15,16,16,17,17,18,18,19,19,20,20,23,23,25,25,26,26,27,27,28,28,31,31,32,32,33,33,34,34,35,35,37,37,38,38,39,39,40,40,43,43,45,45,47,47,50,50,51,51,52,52],"right_children":[2,4,6,8,10,12,14,16,18,20,22,24,26,28,30,32,34,36,38,40,42,-1,-1,44,-1,46,48,50,52,-1,-1,54,56,58,60,62,-1,64,66,68,70,-1,-1,72,-1,74,-1,76,-1,-1,78,80,82,-1,-1,-1,-1,-1,-1,-1,-1,-1,-1,-1,-1,-1,-1,-1,-1,-1,-1,-1,-1,-1,-1,-1,-1,-1,-1,-1,-1,-1,-1],"split_conditions":[7.287287E-1,8.763764E-1,2.007007E-1,9.149149E-1,5.900901E-1,2.1803512E-1,9.992118E-1,5.525526E-1,7.747748E-1,9.899767E-1,5.2180976E-1,9.984638E-1,8.278278E-1,3.3683684E-1,8.963964E-1,1E0,7.747748E-1,9.867226E-1,8.659702E-1,9.60961E-1,9.709894E-1,-1.690505E-1,1.9262932E-1,1.5115115E-1,1.7256449E-1,7.7854645E-1,4.5095095E-1,1E0,3.4798592E-1,1.9078575E-1,-1.5515827E-1,9.80981E-1,8.728729E-1,4.83984E-1,8.623624E-1,9.895423E-1,1.8812849E-1,5.6416416E-1,8.019968E-1,8.0875486E-1,4.894895E-1,-1.683238E-1,1.8997645E-1,8.278278E-1,-1.7047477E-1,7.747748E-1,4.6810728E-2,4.164164E-1,-1.6650069E-1,-1.706674E-1,5.748999E-1,8.893894E-1,8.278278E-1,1.7835557E-1,-1.17345035E-1,-1.5220518E-1,1.645253E-1,5.8626164E-2,-1.5177898E-1,1.9909543E-1,-5.4193713E-2,-1.70645E-1,1.6635627E-1,1.9182019E-1,-1.6460358E-1,-1.3997647E-1,1.7106901E-1,-1.6961108E-1,-1.6022597E-1,1.7557567E-1,-1.5904176E-1,-1.6212694E-1,-3.873307E-2,-1.6778506E-1,-1.0434174E-1,6.2456306E-2,8.098457E-2,-1.695255E-1,1.07464604E-1,-1.268938E-1,8.4197804E-2,-1.6895793E-1,-8.679988E-2],"split_indices":[18,30,3,0,18,16,18,8,30,13,6,18,31,29,0,24,30,4,9,35,30,0,0,3,0,32,27,21,29,0,0,3,30,0,30,10,0,29,29,29,9,0,0,31,0,30,0,27,0,0,7,30,31,0,0,0,0,0,0,0,0,0,0,0,0,0,0,0,0,0,0,0,0,0,0,0,0,0,0,0,0,0,0],"split_type":[0,0,0,0,0,0,0,0,0,0,0,0,0,0,0,0,0,0,0,0,0,0,0,0,0,0,0,0,0,0,0,0,0,0,0,0,0,0,0,0,0,0,0,0,0,0,0,0,0,0,0,0,0,0,0,0,0,0,0,0,0,0,0,0,0,0,0,0,0,0,0,0,0,0,0,0,0,0,0,0,0,0,0],"sum_hessian":[1.7617467E5,1.21108086E5,5.506659E4,1.033608E5,1.7747293E4,6.5594023E3,4.8507184E4,9.5939336E4,7.421457E3,1.7563504E4,1.837888E2,2.4830254E3,4.076377E3,4.845322E4,5.396814E1,5.4291027E4,4.164831E4,5.560292E3,1.8611648E3,1.742379E4,1.3971397E2,9.635036E1,8.7438446E1,2.4760269E3,6.9986105E0,3.125039E2,3.763873E3,4.1203523E4,7.2496934E3,4.4721203E1,9.246937E0,5.2114156E4,2.1768718E3,2.8039994E4,1.3608314E4,5.5343066E3,2.5985386E1,5.467471E2,1.3144177E3,1.7402896E4,2.0892403E1,6.626545E1,7.3448524E1,2.7854642E2,2.1974805E3,3.110086E2,1.4952923E0,3.726965E3,3.690813E1,4.0235957E4,9.675656E2,3.451917E2,6.9045015E3,5.146589E4,6.482648E2,1.6644337E3,5.124381E2,2.227756E4,5.7624336E3,1.3270805E4,3.3750934E2,5.5130596E3,2.124717E1,6.1708202E1,4.8503885E2,8.293228E1,1.2314855E3,1.163658E4,5.7663174E3,8.247905E0,1.2644498E1,2.1983765E2,5.8708767E1,3.0493896E2,6.069645E0,1.776418E3,1.950547E3,9.325854E2,3.4980175E1,1.8088191E2,1.643098E2,6.0593374E3,8.4516406E2],"tree_param":{"num_deleted":"0","num_feature":"36","num_nodes":"83","size_leaf_vector":"1"}},{"base_weights":[-2.4939498E-3,6.2478423E-1,-1.4084101E0,9.847295E-1,-1.5227033E0,-2.8058362E-1,-1.564232E0,1.1352187E0,-1.0043955E0,-1.5390834E0,2.8069364E-2,-1.5471483E0,4.6560043E-1,-1.5673816E0,1.1884966E0,1.4985757E0,6.640953E-1,-1.5668914E0,6.4428747E-1,-1.5530638E0,1.8413287E-1,-1.5809195E-1,1.761726E-1,-1.5569E0,1.5888497E-1,-1.5476015E0,6.2720054E-1,-1.5932908E0,-1.4205655E0,1.7458378E-1,-1.4537977E-1,1.5898472E0,-7.1776915E-1,1.3691199E0,-2.223637E-1,-1.5830163E0,1.7229435E-1,-1.1553508E0,1.3775362E0,-1.5790988E0,-1.4667138E0,-1.5742421E-1,1.7364619E0,-1.2628142E0,-1.5939264E-1,-1.5589412E0,4.3947738E-2,6.484719E-1,-1.557505E-1,-1.595788E-1,-1.4880308E0,-2.417521E-1,-1.4807388E0,1.6244379E-1,-1.5699244E-1,-1.4142649E-1,1.4942807E-1,1.4732984E-1,-8.027099E-2,-1.1242322E-1,9.052784E-2,-1.5955834E-1,1.5179387E-1,1.7547522E-1,-1.5360437E-1,1.7300014E-1,1.4719798E-4,-1.5815319E-1,-6.0492784E-2,-2.1713292E-2,-1.603914E-1,7.696827E-2,1.7595397E-1,-1.5421268E-1,-3.864307E-2,-1.571209E-1,-1.0403931E-1,6.324227E-2,1.1439776E-1,-1.5875821E-1,9.115714E-2,-1.17037535E-1,7.5739674E-2,-1.5788633E-1,-7.920197E-2],"categories":[],"categories_nodes":[],"categories_segments":[],"categories_sizes":[],"default_left":[0,0,0,0,0,0,0,0,0,0,0,0,0,0,0,0,0,0,0,0,0,0,0,0,0,0,0,0,0,0,0,0,0,0,0,0,0,0,0,0,0,0,0,0,0,0,0,0,0,0,0,0,0,0,0,0,0,0,0,0,0,0,0,0,0,0,0,0,0,0,0,0,0,0,0,0,0,0,0,0,0,0,0,0,0],"id":2,"left_children":[1,3,5,7,9,11,13,15,17,19,21,23,25,27,29,31,33,35,37,39,41,-1,-1,43,-1,45,47,49,51,-1,-1,53,55,57,59,61,-1,63,65,67,69,-1,71,73,-1,75,-1,77,-1,-1,79,81,83,-1,-1,-1,-1,-1,-1,-1,-1,-1,-1,-1,-1,-1,-1,-1,-1,-1,-1,-1,-1,-1,-1,-1,-1,-1,-1,-1,-1,-1,-1,-1,-1],"loss_changes":[1.5230022E5,9.230725E4,9.362953E3,3.0616031E4,4.354961E2,6.1143647E3,4.0773438E2,1.62755625E4,6.672514E3,4.0895703E2,5.053262E2,7.58208E1,1.3255428E3,1.7558594E2,8.216061E1,1.0859859E4,2.5876078E4,2.872881E2,2.4174275E3,3.551172E1,3.778063E2,0E0,0E0,2.4027344E1,0E0,7.508606E0,1.7618982E2,8.078125E0,4.978164E2,0E0,0E0,5.637586E3,3.2742568E3,5.219043E3,1.865482E4,2.1046387E2,0E0,5.9044855E2,6.311113E2,2.9658203E1,6.703721E2,0E0,2.8460693E-1,6.604419E1,0E0,2.8216553E-1,0E0,2.897107E1,0E0,0E0,2.2496094E2,3.1847104E2,4.5031445E2,0E0,0E0,0E0,0E0,0E0,0E0,0E0,0E0,0E0,0E0,0E0,0E0,0E0,0E0,0E0,0E0,0E0,0E0,0E0,0E0,0E0,0E0,0E0,0E0,0E0,0E0,0E0,0E0,0E0,0E0,0E0,0E0],"parents":[2147483647,0,0,1,1,2,2,3,3,4,4,5,5,6,6,7,7,8,8,9,9,10,10,11,11,12,12,13,13,14,14,15,15,16,16,17,17,18,18,19,19,20,20,23,23,25,25,26,26,27,27,28,28,31,31,32,32,33,33,34,34,35,35,37,37,38,38,39,39,40,40,42,42,43,43,45,45,47,47,50,50,51,51,52,52],"right_children":[2,4,6,8,10,12,14,16,18,20,22,24,26,28,30,32,34,36,38,40,42,-1,-1,44,-1,46,48,50,52,-1,-1,54,56,58,60,62,-1,64,66,68,70,-1,72,74,-1,76,-1,78,-1,-1,80,82,84,-1,-1,-1,-1,-1,-1,-1,-1,-1,-1,-1,-1,-1,-1,-1,-1,-1,-1,-1,-1,-1,-1,-1,-1,-1,-1,-1,-1,-1,-1,-1,-1],"split_conditions":[7.287287E-1,8.763764E-1,2.007007E-1,9.149149E-1,5.900901E-1,2.1803512E-1,9.992118E-1,5.525526E-1,7.747748E-1,9.899767E-1,5.2180976E-1,9.984638E-1,8.278278E-1,3.3683684E-1,8.963964E-1,1E0,5.689439E-1,9.867226E-1,8.659702E-1,9.73974E-1,9.709894E-1,-1.5809195E-1,1.761726E-1,1.5115115E-1,1.5888497E-1,7.7854645E-1,4.5095095E-1,1E0,3.4798592E-1,1.7458378E-1,-1.4537977E-1,9.339339E-1,8.728729E-1,6.686687E-1,6.411411E-1,9.895423E-1,1.7229435E-1,5.6416416E-1,9.041506E-1,1E0,9.77978E-1,-1.5742421E-1,7.773541E-1,1.8718004E-1,-1.5939264E-1,7.462462E-1,4.3947738E-2,4.4294295E-1,-1.557505E-1,-1.595788E-1,5.650595E-1,8.893894E-1,8.278278E-1,1.6244379E-1,-1.5699244E-1,-1.4142649E-1,1.4942807E-1,1.4732984E-1,-8.027099E-2,-1.1242322E-1,9.052784E-2,-1.5955834E-1,1.5179387E-1,1.7547522E-1,-1.5360437E-1,1.7300014E-1,1.4719798E-4,-1.5815319E-1,-6.0492784E-2,-2.1713292E-2,-1.603914E-1,7.696827E-2,1.7595397E-1,-1.5421268E-1,-3.864307E-2,-1.571209E-1,-1.0403931E-1,6.324227E-2,1.1439776E-1,-1.5875821E-1,9.115714E-2,-1.17037535E-1,7.5739674E-2,-1.5788633E-1,-7.920197E-2],"split_indices":[18,30,3,0,18,16,18,8,30,13,6,18,31,29,0,24,29,4,9,30,30,0,0,3,0,32,27,21,29,0,0,15,30,3,30,10,0,29,34,26,30,0,32,16,0,31,0,27,0,0,7,30,31,0,0,0,0,0,0,0,0,0,0,0,0,0,0,0,0,0,0,0,0,0,0,0,0,0,0,0,0,0,0,0,0],"split_type":[0,0,0,0,0,0,0,0,0,0,0,0,0,0,0,0,0,0,0,0,0,0,0,0,0,0,0,0,0,0,0,0,0,0,0,0,0,0,0,0,0,0,0,0,0,0,0,0,0,0,0,0,0,0,0,0,0,0,0,0,0,0,0,0,0,0,0,0,0,0,0,0,0,0,0,0,0,0,0,0,0,0,0,0,0],"sum_hessian":[1.7269348E5,1.1941473E5,5.327876E4,1.0227305E5,1.714168E4,6.467846E3,4.6810918E4,9.50801E4,7.1929473E3,1.6962521E4,1.7915878E2,2.3974194E3,4.070427E3,4.6757848E4,5.3067173E1,5.367824E4,4.1401863E4,5.3631895E3,1.829758E3,1.6826111E4,1.3641058E2,9.296606E1,8.6192726E1,2.3904895E3,6.9299498E0,3.018185E2,3.7686084E3,3.9735668E4,7.022183E3,4.4103634E1,8.96354E0,5.1555414E4,2.1228264E3,2.3060602E4,1.834126E4,5.3375464E3,2.5642656E1,5.2953235E2,1.3002257E3,1.29149E4,3.9112104E3,6.3953827E1,7.245676E1,2.7123947E2,2.11925E3,3.003201E2,1.4983996E0,3.7329658E3,3.5642803E1,3.8801008E4,9.346595E2,3.4128647E2,6.680897E3,5.0997617E4,5.577943E2,1.6147574E3,5.0806894E2,2.200537E4,1.0552319E3,1.0190821E4,8.150439E3,5.3164863E3,2.106049E1,6.0840958E1,4.686914E2,1.0348912E3,2.653344E2,1.2882102E4,3.2798817E1,3.872084E2,3.5240022E3,2.4901602E0,6.99666E1,2.0510933E2,6.613015E1,2.913963E2,8.923789E0,3.6180547E3,1.1491095E2,8.977532E2,3.6906334E1,1.7679723E2,1.6448926E2,5.8466143E3,8.342824E2],"tree_param":{"num_deleted":"0","num_feature":"36","num_nodes":"85","size_leaf_vector":"1"}},{"base_weights":[-3.1897346E-3,5.764646E-1,-1.3253869E0,9.060981E-1,-1.4358435E0,-2.588798E-1,-1.4766515E0,1.0431746E0,-9.441183E-1,-1.4513843E0,2.566136E-2,-1.4596145E0,4.2056185E-1,-1.4796493E0,1.1038917E0,7.665106E-1,1.615445E0,-1.4802597E0,5.952012E-1,-1.4646658E0,1.720681E-1,-1.4936754E-1,1.6362801E-1,-1.4689738E0,1.4796488E-1,-1.4596806E0,5.651634E-1,-1.3440347E0,-1.5076854E0,1.6217709E-1,-1.3732667E-1,1.2906926E0,-4.9767712E-1,1.696396E0,-1.9524772E-1,-1.4956529E0,1.6009109E-1,-1.0866715E0,1.2649646E0,-1.4663008E0,-1.36372E-1,-1.4872973E-1,1.6123792E0,-1.178369E0,-1.5060395E-1,-1.4708552E0,4.1286908E-2,5.841682E-1,-1.4713383E-1,-1.4350965E0,1.1264285E0,-1.5088103E0,-4.9321303E-1,-1.9690579E-1,1.4154522E-1,-1.2651725E-1,5.4763354E-2,1.6984282E-1,-1.4666556E-1,-1.17116526E-1,1.3338788E-1,-1.5077059E-1,1.400826E-1,1.629908E-1,-1.447345E-1,-1.3232595E-1,1.4420049E-1,-1.4905308E-1,-1.3860953E-1,1.6310772E-1,-1.4017466E-1,7.181449E-2,1.6340469E-1,-1.4519499E-1,-3.5061907E-2,-1.4828472E-1,-9.72342E-2,4.9813237E-2,6.623019E-2,-1.4827357E-1,-1.3131593E-1,1.2091979E-1,-1.4686407E-1,-1.5098259E-1,-9.1886126E-2,2.1758273E-1,-1.4813535E-1],"categories":[],"categories_nodes":[],"categories_segments":[],"categories_sizes":[],"default_left":[0,0,0,0,0,0,0,0,0,0,0,0,0,0,0,0,0,0,0,0,0,0,0,0,0,0,0,0,0,0,0,0,0,0,0,0,0,0,0,0,0,0,0,0,0,0,0,0,0,0,0,0,0,0,0,0,0,0,0,0,0,0,0,0,0,0,0,0,0,0,0,0,0,0,0,0,0,0,0,0,0,0,0,0,0,0,0],"id":3,"left_children":[1,3,5,7,9,11,13,15,17,19,21,23,25,27,29,31,33,35,37,39,41,-1,-1,43,-1,45,47,49,51,-1,-1,53,55,57,59,61,-1,63,65,67,69,-1,71,73,-1,75,-1,77,-1,79,81,83,85,-1,-1,-1,-1,-1,-1,-1,-1,-1,-1,-1,-1,-1,-1,-1,-1,-1,-1,-1,-1,-1,-1,-1,-1,-1,-1,-1,-1,-1,-1,-1,-1,-1,-1],"loss_changes":[1.2845394E5,7.729206E4,8.240555E3,2.5393664E4,3.7255078E2,5.1782114E3,3.4771094E2,1.4757156E4,5.700753E3,3.5016406E2,4.2712375E2,6.527002E1,1.102992E3,1.67875E2,6.955724E1,4.164149E4,4.452992E3,2.4535742E2,2.0119011E3,3.4757812E1,3.1926825E2,0E0,0E0,2.2858398E1,0E0,6.6708374E0,1.4657837E2,1.7258945E3,4.15E1,0E0,0E0,1.8067938E4,1.4777779E4,1.8939844E2,1.9428506E3,1.800791E2,0E0,5.0094806E2,5.8703467E2,2.9179688E1,4.901297E1,0E0,2.1102905E-1,5.911316E1,0E0,2.816162E-1,0E0,2.4750366E1,0E0,4.0995117E1,6.042224E1,2.0765625E1,1.15289085E2,0E0,0E0,0E0,0E0,0E0,0E0,0E0,0E0,0E0,0E0,0E0,0E0,0E0,0E0,0E0,0E0,0E0,0E0,0E0,0E0,0E0,0E0,0E0,0E0,0E0,0E0,0E0,0E0,0E0,0E0,0E0,0E0,0E0,0E0],"parents":[2147483647,0,0,1,1,2,2,3,3,4,4,5,5,6,6,7,7,8,8,9,9,10,10,11,11,12,12,13,13,14,14,15,15,16,16,17,17,18,18,19,19,20,20,23,23,25,25,26,26,27,27,28,28,31,31,32,32,33,33,34,34,35,35,37,37,38,38,39,39,40,40,42,42,43,43,45,45,47,47,49,49,50,50,51,51,52,52],"right_children":[2,4,6,8,10,12,14,16,18,20,22,24,26,28,30,32,34,36,38,40,42,-1,-1,44,-1,46,48,50,52,-1,-1,54,56,58,60,62,-1,64,66,68,70,-1,72,74,-1,76,-1,78,-1,80,82,84,86,-1,-1,-1,-1,-1,-1,-1,-1,-1,-1,-1,-1,-1,-1,-1,-1,-1,-1,-1,-1,-1,-1,-1,-1,-1,-1,-1,-1,-1,-1,-1,-1,-1,-1],"split_conditions":[7.287287E-1,8.763764E-1,2.007007E-1,9.149149E-1,5.900901E-1,2.1803512E-1,9.992118E-1,7.747748E-1,7.747748E-1,9.899767E-1,5.2180976E-1,9.984638E-1,8.278278E-1,4.104104E-1,8.963964E-1,3.078078E-1,8.623624E-1,9.867226E-1,8.659702E-1,9.60961E-1,9.709894E-1,-1.4936754E-1,1.6362801E-1,1.5115115E-1,1.4796488E-1,7.7854645E-1,4.5095095E-1,3.978979E-1,9.981005E-1,1.6217709E-1,-1.3732667E-1,3.963964E-1,6.411411E-1,9.0784216E-1,8.728729E-1,9.895423E-1,1.6009109E-1,5.6416416E-1,8.019968E-1,9.73974E-1,4.894895E-1,-1.4872973E-1,7.773541E-1,1.8718004E-1,-1.5060395E-1,7.462462E-1,4.1286908E-2,4.164164E-1,-1.4713383E-1,8.893894E-1,4.944945E-1,8.070759E-1,9.48507E-1,-1.9690579E-1,1.4154522E-1,-1.2651725E-1,5.4763354E-2,1.6984282E-1,-1.4666556E-1,-1.17116526E-1,1.3338788E-1,-1.5077059E-1,1.400826E-1,1.629908E-1,-1.447345E-1,-1.3232595E-1,1.4420049E-1,-1.4905308E-1,-1.3860953E-1,1.6310772E-1,-1.4017466E-1,7.181449E-2,1.6340469E-1,-1.4519499E-1,-3.5061907E-2,-1.4828472E-1,-9.72342E-2,4.9813237E-2,6.623019E-2,-1.4827357E-1,-1.3131593E-1,1.2091979E-1,-1.4686407E-1,-1.5098259E-1,-9.1886126E-2,2.1758273E-1,-1.4813535E-1],"split_indices":[18,30,3,0,18,16,18,30,30,13,6,18,31,26,0,27,30,4,9,35,30,0,0,3,0,32,27,27,1,0,0,29,30,5,30,10,0,29,29,30,9,0,32,16,0,31,0,27,0,30,29,4,0,0,0,0,0,0,0,0,0,0,0,0,0,0,0,0,0,0,0,0,0,0,0,0,0,0,0,0,0,0,0,0,0,0,0],"split_type":[0,0,0,0,0,0,0,0,0,0,0,0,0,0,0,0,0,0,0,0,0,0,0,0,0,0,0,0,0,0,0,0,0,0,0,0,0,0,0,0,0,0,0,0,0,0,0,0,0,0,0,0,0,0,0,0,0,0,0,0,0,0,0,0,0,0,0,0,0,0,0,0,0,0,0,0,0,0,0,0,0,0,0,0,0,0,0],"sum_hessian":[1.6760112E5,1.1651934E5,5.108179E4,1.0011945E5,1.6399887E4,6.345424E3,4.4736363E4,9.321397E4,6.9054834E3,1.6227341E4,1.7254605E2,2.2926387E3,4.0527852E3,4.468488E4,5.1484035E1,6.283752E4,3.0376451E4,5.1216597E3,1.7838237E3,1.6095759E4,1.3158154E2,8.8826454E1,8.371959E1,2.2858604E3,6.7784586E0,2.8877475E2,3.7640105E3,7.66365E3,3.702123E4,4.286741E1,8.616627E0,4.441945E4,1.841807E4,2.9076582E4,1.2998689E3,5.096712E3,2.4948078E1,5.078689E2,1.2759548E3,1.6075866E4,1.9892881E1,6.1126183E1,7.045537E1,2.6228342E2,2.0235768E3,2.872749E2,1.4998282E0,3.7299155E3,3.4094826E1,7.3916123E3,2.7203738E2,3.697974E4,4.1491272E1,1.6368435E3,4.2782605E4,1.0620213E4,7.797858E3,2.9058377E4,1.820693E1,7.9360754E2,5.0626132E2,5.0760684E3,2.064323E1,5.9113003E1,4.487559E2,8.127585E1,1.194679E3,1.2332634E4,3.7432322E3,8.179256E0,1.1713625E1,2.4745183E0,6.798085E1,1.96563E2,6.572041E1,2.785985E2,8.676394E0,1.7786997E3,1.951216E3,5.307056E3,2.0845564E3,2.641465E2,7.890888E0,3.691464E4,6.509793E1,1.0885849E1,3.0605425E1],"tree_param":{"num_deleted":"0","num_feature":"36","num_nodes":"87","size_leaf_vector":"1"}},{"base_weights":[-3.7120183E-3,5.355686E-1,-1.2563773E0,8.3936334E-1,-1.3644813E0,-2.399287E-1,-1.4049368E0,9.649191E-1,-8.9531386E-1,-1.379313E0,2.3812268E-2,-1.4135299E0,3.6834648E-1,-1.4078083E0,1.0363641E0,7.38276E-1,1.5900941E0,-1.4101502E0,5.5538887E-1,-1.3920075E0,1.6251406E-1,-1.4227672E-1,1.5377098E-1,-1.4229095E0,1.3902634E-1,5.2405965E-1,-1.4369147E-1,-1.434344E0,-1.2595733E0,1.523874E-1,-1.3056242E-1,1.1678798E0,-1.1542699E-1,1.5910643E0,-1.4753354E-1,-1.4249506E0,1.5040529E-1,-1.0302696E0,1.1745234E0,-1.4184731E0,-1.3050456E0,-1.41649E-1,1.5143002E0,-1.4284788E-1,-1.1017889E0,5.2716684E-1,-1.4677034E-1,-1.4369129E-1,-1.3267934E0,-9.7596616E-2,-1.3222597E0,-1.6393402E-1,1.2876523E-1,-1.1832004E-1,8.041362E-2,1.5893637E-1,2.592122E-1,-1.4366065E-1,1.3038068E-1,1.5316282E-1,-1.3741535E-1,1.5055215E-1,-7.6533104E-3,-1.4210361E-1,-4.330049E-2,-6.986911E-3,-1.4476228E-1,6.7126326E-2,1.5353687E-1,1.305208E-1,-1.3151918E-1,5.126993E-2,9.785056E-2,-1.4297631E-1,9.2670016E-2,-1.0754134E-1,7.477569E-2,-1.4208597E-1,-6.7312546E-2],"categories":[],"categories_nodes":[],"categories_segments":[],"categories_sizes":[],"default_left":[0,0,0,0,0,0,0,0,0,0,0,0,0,0,0,0,0,0,0,0,0,0,0,0,0,0,0,0,0,0,0,0,0,0,0,0,0,0,0,0,0,0,0,0,0,0,0,0,0,0,0,0,0,0,0,0,0,0,0,0,0,0,0,0,0,0,0,0,0,0,0,0,0,0,0,0,0,0,0],"id":4,"left_children":[1,3,5,7,9,11,13,15,17,19,21,23,25,27,29,31,33,35,37,39,41,-1,-1,43,-1,45,-1,47,49,-1,-1,51,53,55,-1,57,-1,59,61,63,65,-1,67,-1,69,71,-1,-1,73,75,77,-1,-1,-1,-1,-1,-1,-1,-1,-1,-1,-1,-1,-1,-1,-1,-1,-1,-1,-1,-1,-1,-1,-1,-1,-1,-1,-1,-1],"loss_changes":[1.0918837E5,6.5221316E4,7.344828E3,2.121761E4,3.2074414E2,4.4293906E3,2.9897656E2,1.2870086E4,4.9118354E3,3.0186133E2,3.649011E2,5.7680176E1,1.1496074E3,1.6494531E2,5.9574734E1,2.4452387E4,7.423047E1,2.1147852E2,1.69278E3,3.3328125E1,2.7267603E2,0E0,0E0,2.2016602E0,0E0,2.4063232E1,0E0,8.0234375E0,4.6928027E2,0E0,0E0,1.491475E4,2.1916889E4,3.701172E1,0E0,1.5547852E2,0E0,4.288454E2,5.1345325E2,2.8953125E1,6.3018604E2,0E0,1.9081116E-1,0E0,2.2452263E1,2.4037231E1,0E0,0E0,1.9892114E2,2.743637E2,3.9039453E2,0E0,0E0,0E0,0E0,0E0,0E0,0E0,0E0,0E0,0E0,0E0,0E0,0E0,0E0,0E0,0E0,0E0,0E0,0E0,0E0,0E0,0E0,0E0,0E0,0E0,0E0,0E0,0E0],"parents":[2147483647,0,0,1,1,2,2,3,3,4,4,5,5,6,6,7,7,8,8,9,9,10,10,11,11,12,12,13,13,14,14,15,15,16,16,17,17,18,18,19,19,20,20,23,23,25,25,27,27,28,28,31,31,32,32,33,33,35,35,37,37,38,38,39,39,40,40,42,42,44,44,45,45,48,48,49,49,50,50],"right_children":[2,4,6,8,10,12,14,16,18,20,22,24,26,28,30,32,34,36,38,40,42,-1,-1,44,-1,46,-1,48,50,-1,-1,52,54,56,-1,58,-1,60,62,64,66,-1,68,-1,70,72,-1,-1,74,76,78,-1,-1,-1,-1,-1,-1,-1,-1,-1,-1,-1,-1,-1,-1,-1,-1,-1,-1,-1,-1,-1,-1,-1,-1,-1,-1,-1,-1],"split_conditions":[7.287287E-1,8.763764E-1,2.007007E-1,9.149149E-1,5.900901E-1,8.278278E-1,9.992118E-1,8.517642E-1,7.747748E-1,9.899767E-1,5.2180976E-1,9.984638E-1,4.5095095E-1,3.3683684E-1,8.963964E-1,3.078078E-1,9.70971E-1,9.867226E-1,8.659702E-1,9.73974E-1,9.709894E-1,-1.4227672E-1,1.5377098E-1,6.411411E-1,1.3902634E-1,9.35382E-1,-1.4369147E-1,1E0,3.4798592E-1,1.523874E-1,-1.3056242E-1,3.963964E-1,6.411411E-1,5.605606E-1,-1.4753354E-1,9.895423E-1,1.5040529E-1,5.6416416E-1,9.041506E-1,1E0,9.77978E-1,-1.41649E-1,7.773541E-1,-1.4284788E-1,8.646146E-1,4.4294295E-1,-1.4677034E-1,-1.4369129E-1,5.650595E-1,3.4734735E-1,8.278278E-1,-1.6393402E-1,1.2876523E-1,-1.1832004E-1,8.041362E-2,1.5893637E-1,2.592122E-1,-1.4366065E-1,1.3038068E-1,1.5316282E-1,-1.3741535E-1,1.5055215E-1,-7.6533104E-3,-1.4210361E-1,-4.330049E-2,-6.986911E-3,-1.4476228E-1,6.7126326E-2,1.5353687E-1,1.305208E-1,-1.3151918E-1,5.126993E-2,9.785056E-2,-1.4297631E-1,9.2670016E-2,-1.0754134E-1,7.477569E-2,-1.4208597E-1,-6.7312546E-2],"split_indices":[18,30,3,0,18,31,18,35,30,13,6,18,27,29,0,27,29,4,9,30,30,0,0,30,0,8,0,21,29,0,0,29,30,2,0,10,0,29,34,26,30,0,32,0,30,27,0,0,7,29,31,0,0,0,0,0,0,0,0,0,0,0,0,0,0,0,0,0,0,0,0,0,0,0,0,0,0,0,0],"split_type":[0,0,0,0,0,0,0,0,0,0,0,0,0,0,0,0,0,0,0,0,0,0,0,0,0,0,0,0,0,0,0,0,0,0,0,0,0,0,0,0,0,0,0,0,0,0,0,0,0,0,0,0,0,0,0,0,0,0,0,0,0,0,0,0,0,0,0,0,0,0,0,0,0,0,0,0,0,0,0],"sum_hessian":[1.6162969E5,1.1298813E5,4.8641555E4,9.741347E4,1.5574663E4,6.203007E3,4.243855E4,9.083899E4,6.574473E3,1.5410039E4,1.6462456E2,2.1170547E3,4.0859521E3,4.2389113E4,4.943619E1,6.667108E4,2.4167914E4,4.8524336E3,1.72204E3,1.5284295E4,1.2574356E2,8.421476E1,8.04098E1,2.110487E3,6.567789E0,3.7621565E3,3.2379587E2,3.5945742E4,6.4433696E3,4.1207695E1,8.228497E0,4.4351816E4,2.2319266E4,2.4160748E4,7.1660337E0,4.8284224E3,2.401117E1,4.833847E2,1.2386553E3,1.1706309E4,3.5779866E3,5.7975388E1,6.776817E1,2.0711187E3,3.9368458E1,3.7570305E3,5.1257463E0,3.5095188E4,8.5055634E2,3.2994525E2,6.1134243E3,1.8143557E3,4.253746E4,1.0327244E4,1.1992021E4,2.4122355E4,3.8392334E1,4.808357E3,2.0065298E1,5.6797268E1,4.2658743E2,9.7934235E2,2.5931293E2,1.1675501E4,3.0807308E1,3.7042297E2,3.2075637E3,2.4535174E0,6.531465E1,2.7894745E0,3.6578983E1,3.6424102E3,1.1462058E2,8.1373944E2,3.6816914E1,1.5286028E2,1.7708498E2,5.306245E3,8.0717914E2],"tree_param":{"num_deleted":"0","num_feature":"36","num_nodes":"79","size_leaf_vector":"1"}},{"base_weights":[-4.203838E-3,5.0049824E-1,-1.1982572E0,7.8213376E-1,-1.3051878E0,-2.2305585E-1,-1.3456938E0,8.978215E-1,-8.540993E-1,-1.319418E0,2.2353157E-2,-1.3541281E0,3.3391127E-1,-1.3484604E0,9.811745E-1,6.481139E-1,1.4295014E0,-1.3524691E0,5.209224E-1,-1.3316177E0,1.5478243E-1,-1.364161E-1,1.4584164E-1,-1.3632635E0,1.3155405E-1,4.7349408E-1,-1.3777916E-1,-1.2071228E0,-1.3780175E0,1.4447902E-1,-1.24782205E-1,1.1063409E0,-4.3921784E-1,1.5093684E0,-2.6662973E-1,-1.3667842E0,1.4253561E-1,-9.830077E-1,1.0951791E0,-1.3587666E0,-1.2429296E0,-1.3578402E-1,1.4348786E0,-1.3689701E-1,-1.0395851E0,4.7632623E-1,-1.3807301E-1,-1.3012217E0,1.0700982E0,-1.3792104E0,-3.5132158E-1,-1.6507797E-1,1.2150134E-1,-1.0790677E-1,4.0690046E-2,1.5109132E-1,-2.263253E-1,-1.13549285E-1,1.1590805E-1,-1.3781348E-1,1.221408E-1,1.4524211E-1,-1.3125591E-1,-1.2529363E-1,1.2619655E-1,-1.3613813E-1,-3.9726302E-2,-6.3043223E-3,-1.3871664E-1,6.2836364E-2,1.4559253E-1,1.16696216E-1,-1.2526195E-1,4.630737E-2,8.939492E-2,-1.3518816E-1,-1.1734481E-1,-1.05297565E-1,1.1583548E-1,-1.3803041E-1,-7.7305414E-2,2.0271333E-1,-1.3546152E-1],"categories":[],"categories_nodes":[],"categories_segments":[],"categories_sizes":[],"default_left":[0,0,0,0,0,0,0,0,0,0,0,0,0,0,0,0,0,0,0,0,0,0,0,0,0,0,0,0,0,0,0,0,0,0,0,0,0,0,0,0,0,0,0,0,0,0,0,0,0,0,0,0,0,0,0,0,0,0,0,0,0,0,0,0,0,0,0,0,0,0,0,0,0,0,0,0,0,0,0,0,0,0,0],"id":5,"left_children":[1,3,5,7,9,11,13,15,17,19,21,23,25,27,29,31,33,35,37,39,41,-1,-1,43,-1,45,-1,47,49,-1,-1,51,53,55,57,59,-1,61,63,65,67,-1,69,-1,71,73,-1,75,77,79,81,-1,-1,-1,-1,-1,-1,-1,-1,-1,-1,-1,-1,-1,-1,-1,-1,-1,-1,-1,-1,-1,-1,-1,-1,-1,-1,-1,-1,-1,-1,-1,-1],"loss_changes":[9.341479E4,5.5409918E4,6.6212734E3,1.784254E4,2.7775586E2,3.8113982E3,2.5885156E2,1.1686547E4,4.266258E3,2.6180273E2,3.1439343E2,5.047754E1,9.693025E2,1.6527344E2,5.1496082E1,2.9845953E4,3.8112148E3,1.8363477E2,1.4318151E3,3.304883E1,2.3484532E2,0E0,0E0,2.2524414E0,0E0,2.034674E1,0E0,1.4840156E3,3.9976562E1,0E0,0E0,1.2628727E4,9.61562E3,1.599961E2,1.5694753E3,1.3523438E2,0E0,3.697354E2,4.7128174E2,2.7197266E1,5.773135E2,0E0,1.9923401E-1,0E0,1.962112E1,2.0309204E1,0E0,4.142578E1,5.2768097E1,2.0808594E1,9.7444786E1,0E0,0E0,0E0,0E0,0E0,0E0,0E0,0E0,0E0,0E0,0E0,0E0,0E0,0E0,0E0,0E0,0E0,0E0,0E0,0E0,0E0,0E0,0E0,0E0,0E0,0E0,0E0,0E0,0E0,0E0,0E0,0E0],"parents":[2147483647,0,0,1,1,2,2,3,3,4,4,5,5,6,6,7,7,8,8,9,9,10,10,11,11,12,12,13,13,14,14,15,15,16,16,17,17,18,18,19,19,20,20,23,23,25,25,27,27,28,28,31,31,32,32,33,33,34,34,35,35,37,37,38,38,39,39,40,40,42,42,44,44,45,45,47,47,48,48,49,49,50,50],"right_children":[2,4,6,8,10,12,14,16,18,20,22,24,26,28,30,32,34,36,38,40,42,-1,-1,44,-1,46,-1,48,50,-1,-1,52,54,56,58,60,-1,62,64,66,68,-1,70,-1,72,74,-1,76,78,80,82,-1,-1,-1,-1,-1,-1,-1,-1,-1,-1,-1,-1,-1,-1,-1,-1,-1,-1,-1,-1,-1,-1,-1,-1,-1,-1,-1,-1,-1,-1,-1,-1],"split_conditions":[7.287287E-1,8.763764E-1,2.007007E-1,9.149149E-1,5.900901E-1,8.278278E-1,9.992118E-1,7.747748E-1,7.747748E-1,9.899767E-1,5.2180976E-1,9.984638E-1,4.5095095E-1,4.079079E-1,8.963964E-1,3.078078E-1,8.623624E-1,9.867226E-1,8.659702E-1,9.73974E-1,9.709894E-1,-1.364161E-1,1.4584164E-1,6.411411E-1,1.3155405E-1,9.35382E-1,-1.3777916E-1,3.978979E-1,9.981005E-1,1.4447902E-1,-1.24782205E-1,3.963964E-1,6.411411E-1,9.434434E-1,8.728729E-1,9.895423E-1,1.4253561E-1,5.6416416E-1,8.019968E-1,1E0,9.77978E-1,-1.3578402E-1,7.773541E-1,-1.3689701E-1,8.646146E-1,4.4294295E-1,-1.3807301E-1,8.893894E-1,4.7247246E-1,8.070759E-1,9.48507E-1,-1.6507797E-1,1.2150134E-1,-1.0790677E-1,4.0690046E-2,1.5109132E-1,-2.263253E-1,-1.13549285E-1,1.1590805E-1,-1.3781348E-1,1.221408E-1,1.4524211E-1,-1.3125591E-1,-1.2529363E-1,1.2619655E-1,-1.3613813E-1,-3.9726302E-2,-6.3043223E-3,-1.3871664E-1,6.2836364E-2,1.4559253E-1,1.16696216E-1,-1.2526195E-1,4.630737E-2,8.939492E-2,-1.3518816E-1,-1.1734481E-1,-1.05297565E-1,1.1583548E-1,-1.3803041E-1,-7.7305414E-2,2.0271333E-1,-1.3546152E-1],"split_indices":[18,30,3,0,18,31,18,30,30,13,6,18,27,0,0,27,30,4,9,30,30,0,0,30,0,8,0,27,1,0,0,29,30,15,30,10,0,29,29,26,30,0,32,0,30,27,0,30,29,4,0,0,0,0,0,0,0,0,0,0,0,0,0,0,0,0,0,0,0,0,0,0,0,0,0,0,0,0,0,0,0,0,0],"split_type":[0,0,0,0,0,0,0,0,0,0,0,0,0,0,0,0,0,0,0,0,0,0,0,0,0,0,0,0,0,0,0,0,0,0,0,0,0,0,0,0,0,0,0,0,0,0,0,0,0,0,0,0,0,0,0,0,0,0,0,0,0,0,0,0,0,0,0,0,0,0,0,0,0,0,0,0,0,0,0,0,0,0,0],"sum_hessian":[1.5500698E5,1.0895465E5,4.6052332E4,9.425424E4,1.4700407E4,6.0484077E3,4.0003926E4,8.80306E4,6.2236377E3,1.4544509E4,1.5589844E2,1.9951947E3,4.0532131E3,3.995684E4,4.708722E1,5.990022E4,2.8130383E4,4.568004E3,1.6556339E3,1.44252295E4,1.1927926E2,7.9343056E1,7.655539E1,1.9888782E3,6.3164215E0,3.7482788E3,3.0493445E2,6.9179697E3,3.3038867E4,3.9270954E1,7.8162646E0,4.2141E4,1.7759219E4,2.6865459E4,1.2649236E3,4.5450894E3,2.2914595E1,4.572977E2,1.1983362E3,1.1033403E4,3.3918262E3,5.4646095E1,6.463316E1,1.9512471E3,3.763117E1,3.7433042E3,4.974421E0,6.6438623E3,2.7410773E2,3.3000184E4,3.8684555E1,1.5974724E3,4.0543527E4,1.0112038E4,7.6471807E3,2.6855062E4,1.0397286E1,7.8607416E2,4.7884946E2,4.5257095E3,1.9379923E1,5.4098095E1,4.0319962E2,7.904089E1,1.1192953E3,1.1003067E4,3.0336607E1,3.6962817E2,3.0221982E3,2.4284852E0,6.2204674E1,2.919018E0,3.471215E1,3.6302146E3,1.13089714E2,4.750711E3,1.893151E3,1.050368E1,2.6360406E2,3.2939473E4,6.0711327E1,1.1174139E1,2.7510414E1],"tree_param":{"num_deleted":"0","num_feature":"36","num_nodes":"83","size_leaf_vector":"1"}},{"base_weights":[-4.568653E-3,4.706204E-1,-1.1480982E0,7.3340964E-1,-1.2550174E0,-2.0784457E-1,-1.2956095E0,8.4071004E-1,-8.1962097E-1,-1.2687277E0,2.117659E-2,-1.3042866E0,3.029739E-1,-1.2992468E0,3.6113885E-1,6.332942E-1,1.4370104E0,-1.3043712E0,4.9162468E-1,-1.2805032E0,1.4841396E-1,-1.315041E-1,1.3934192E-1,-1.3132315E0,1.2519276E-1,4.2819774E-1,-1.3284768E-1,-1.1533343E0,-1.3300779E0,1.4973444E0,-1.3150387E-1,1.0113235E0,-1.0473469E-1,1.4379191E0,-1.3369043E-1,-1.3182864E0,1.3601696E-1,-9.426986E-1,1.0285244E0,-1.3085622E0,-1.1894283E0,-1.3085638E-1,1.3692776E0,-1.3191186E-1,-9.850628E-1,3.5322392E-1,4.965969E-1,-1.2469908E0,9.455366E-1,-1.3312216E0,-7.1902746E-1,-4.2311758E-2,1.5518134E0,3.7958212E-2,1.4284076E-1,-1.0196121E-1,6.671398E-2,1.5764193E-1,1.4269479E-1,-1.3294058E-1,1.1499143E-1,1.3873646E-1,-1.2598152E-1,1.3555194E-1,-1.3769442E-2,-1.3112625E-1,-3.642814E-2,-5.6873015E-3,-1.336881E-1,5.8890857E-2,1.3907455E-1,1.0513166E-1,-1.1980919E-1,-1.7464656E-2,3.6585767E-2,5.9491314E-2,3.7487518E-2,-1.3001576E-1,-1.1097218E-1,1.0174813E-1,-1.4105521E-1,-1.3313109E-1,5.8084535E-3,-1.358729E-1,2.920506E-1,1.3605468E-1,2.0618694E-1],"categories":[],"categories_nodes":[],"categories_segments":[],"categories_sizes":[],"default_left":[0,0,0,0,0,0,0,0,0,0,0,0,0,0,0,0,0,0,0,0,0,0,0,0,0,0,0,0,0,0,0,0,0,0,0,0,0,0,0,0,0,0,0,0,0,0,0,0,0,0,0,0,0,0,0,0,0,0,0,0,0,0,0,0,0,0,0,0,0,0,0,0,0,0,0,0,0,0,0,0,0,0,0,0,0,0,0],"id":6,"left_children":[1,3,5,7,9,11,13,15,17,19,21,23,25,27,29,31,33,35,37,39,41,-1,-1,43,-1,45,-1,47,49,51,-1,53,55,57,-1,59,-1,61,63,65,67,-1,69,-1,71,73,75,77,79,81,83,-1,85,-1,-1,-1,-1,-1,-1,-1,-1,-1,-1,-1,-1,-1,-1,-1,-1,-1,-1,-1,-1,-1,-1,-1,-1,-1,-1,-1,-1,-1,-1,-1,-1,-1,-1],"loss_changes":[8.0362195E4,4.7378332E4,6.021207E3,1.510977E4,2.4161914E2,3.2984907E3,2.2661719E2,1.0488523E4,3.7254434E3,2.2816211E2,2.7273917E2,4.4440918E1,8.2141003E2,1.6691797E2,1.600265E2,1.7555812E4,5.7089844E1,1.6043604E2,1.2195476E3,3.3064453E1,2.0363812E2,0E0,0E0,2.3049316E0,0E0,1.8963928E1,0E0,1.2866416E3,2.0640625E1,5.8796616E0,0E0,1.096348E4,1.5052402E4,3.0996094E1,0E0,1.1835742E2,0E0,3.205951E2,4.3945105E2,2.5908203E1,5.346543E2,0E0,2.2348785E-1,0E0,1.7235573E1,1.1961395E1,2.3103851E1,4.4248047E1,4.888156E1,3.90625E0,1.4346678E2,0E0,1.952385E0,0E0,0E0,0E0,0E0,0E0,0E0,0E0,0E0,0E0,0E0,0E0,0E0,0E0,0E0,0E0,0E0,0E0,0E0,0E0,0E0,0E0,0E0,0E0,0E0,0E0,0E0,0E0,0E0,0E0,0E0,0E0,0E0,0E0,0E0],"parents":[2147483647,0,0,1,1,2,2,3,3,4,4,5,5,6,6,7,7,8,8,9,9,10,10,11,11,12,12,13,13,14,14,15,15,16,16,17,17,18,18,19,19,20,20,23,23,25,25,27,27,28,28,29,29,31,31,32,32,33,33,35,35,37,37,38,38,39,39,40,40,42,42,44,44,45,45,46,46,47,47,48,48,49,49,50,50,52,52],"right_children":[2,4,6,8,10,12,14,16,18,20,22,24,26,28,30,32,34,36,38,40,42,-1,-1,44,-1,46,-1,48,50,52,-1,54,56,58,-1,60,-1,62,64,66,68,-1,70,-1,72,74,76,78,80,82,84,-1,86,-1,-1,-1,-1,-1,-1,-1,-1,-1,-1,-1,-1,-1,-1,-1,-1,-1,-1,-1,-1,-1,-1,-1,-1,-1,-1,-1,-1,-1,-1,-1,-1,-1,-1],"split_conditions":[7.287287E-1,8.763764E-1,2.007007E-1,9.149149E-1,5.900901E-1,8.278278E-1,9.981005E-1,8.517642E-1,7.747748E-1,9.899767E-1,5.2180976E-1,9.984638E-1,4.5095095E-1,4.104104E-1,9.9825585E-1,3.078078E-1,9.70971E-1,9.867226E-1,8.659702E-1,9.73974E-1,9.709894E-1,-1.315041E-1,1.3934192E-1,6.411411E-1,1.2519276E-1,4.164164E-1,-1.3284768E-1,3.978979E-1,8.070759E-1,5.940941E-1,-1.3150387E-1,1E0,6.411411E-1,7.747748E-1,-1.3369043E-1,9.895423E-1,1.3601696E-1,5.6416416E-1,9.041506E-1,1E0,9.77978E-1,-1.3085638E-1,7.773541E-1,-1.3191186E-1,8.646146E-1,7.0608693E-1,8.278474E-1,8.283283E-1,4.944945E-1,1E0,2.3612173E-1,-4.2311758E-2,6.5748644E-1,3.7958212E-2,1.4284076E-1,-1.0196121E-1,6.671398E-2,1.5764193E-1,1.4269479E-1,-1.3294058E-1,1.1499143E-1,1.3873646E-1,-1.2598152E-1,1.3555194E-1,-1.3769442E-2,-1.3112625E-1,-3.642814E-2,-5.6873015E-3,-1.336881E-1,5.8890857E-2,1.3907455E-1,1.0513166E-1,-1.1980919E-1,-1.7464656E-2,3.6585767E-2,5.9491314E-2,3.7487518E-2,-1.3001576E-1,-1.1097218E-1,1.0174813E-1,-1.4105521E-1,-1.3313109E-1,5.8084535E-3,-1.358729E-1,2.920506E-1,1.3605468E-1,2.0618694E-1],"split_indices":[18,30,3,0,18,31,1,35,30,13,6,18,27,26,1,27,29,4,9,30,30,0,0,30,0,27,0,27,4,5,0,22,30,30,0,10,0,29,34,26,30,0,32,0,30,4,32,17,29,32,16,0,3,0,0,0,0,0,0,0,0,0,0,0,0,0,0,0,0,0,0,0,0,0,0,0,0,0,0,0,0,0,0,0,0,0,0],"split_type":[0,0,0,0,0,0,0,0,0,0,0,0,0,0,0,0,0,0,0,0,0,0,0,0,0,0,0,0,0,0,0,0,0,0,0,0,0,0,0,0,0,0,0,0,0,0,0,0,0,0,0,0,0,0,0,0,0,0,0,0,0,0,0,0,0,0,0,0,0,0,0,0,0,0,0,0,0,0,0,0,0,0,0,0,0,0,0],"sum_hessian":[1.4788772E5,1.044744E5,4.3413324E4,9.0667625E4,1.38067705E4,5.8875854E3,3.752574E4,8.480858E4,5.859047E3,1.3660026E4,1.4674466E2,1.870695E3,4.0168906E3,3.7443746E4,8.199234E1,6.2923477E4,2.1885102E4,4.277658E3,1.5813885E3,1.3547551E4,1.1247516E2,7.436936E1,7.237529E1,1.8646561E3,6.0387316E0,3.7312332E3,2.8565747E2,6.5383657E3,3.0905379E4,4.8930943E1,3.3061398E1,4.1609906E4,2.131357E4,2.1878416E4,6.685758E0,4.2559375E3,2.1720835E1,4.305151E2,1.1508735E3,1.0346542E4,3.2010095E3,5.1246178E1,6.122898E1,1.8288289E3,3.5827324E1,1.7830056E3,1.9482275E3,6.25946E3,2.7890594E2,3.0846463E4,5.8916542E1,1.162863E0,4.7768078E1,1.6547682E4,2.5062225E4,9.753155E3,1.1560414E4,1.5954033E3,2.0283014E4,4.23731E3,1.8627615E1,5.116889E1,3.7934622E2,8.987199E2,2.5215355E2,1.0316652E4,2.988971E1,3.6890555E2,2.832104E3,2.4005182E0,5.882846E1,3.020339E0,3.2806984E1,4.1376205E1,1.7416294E3,1.07558E3,8.726475E2,4.5058105E3,1.7536494E3,2.7119302E2,7.7129097E0,3.0844523E4,1.9398403E0,5.0642117E1,8.274423E0,3.740789E1,1.0360189E1],"tree_param":{"num_deleted":"0","num_feature":"36","num_nodes":"87","size_leaf_vector":"1"}},{"base_weights":[-4.815041E-3,4.4358468E-1,-1.1042837E0,6.8915313E-1,-1.2119501E0,-1.939262E-1,-1.252974E0,1.0578207E0,2.8387326E-1,-1.2252043E0,2.021104E-2,-1.261936E0,2.7505317E-1,-1.2857492E0,-1.0767211E0,1.1486307E0,-8.5182536E-1,9.9905604E-1,-3.9423597E-1,-1.2366111E0,1.4309052E-1,-1.2733784E-1,1.3393098E-1,-1.2707345E0,1.19689636E-1,3.8745674E-1,-1.286875E-1,-1.2888148E-1,-1.1593795E0,2.3582272E-1,-1.1656059E0,1.199512E0,-1.2764788E0,-1.3930409E0,1.1021321E0,1.0673597E0,-1.3175777E0,-1.0632446E0,5.225106E-1,-1.2657945E0,-1.1425526E0,-1.266651E-1,1.3141736E0,-1.2768418E-1,-9.3648124E-1,3.900612E-1,-1.3304693E-1,-1.2813088E0,1.0627736E0,6.574053E-1,-1.3887873E-1,-1.2710881E0,-5.4647565E-1,1.23498596E-1,-8.902537E-2,1.9650985E-1,-1.3879591E-1,-1.5826821E-1,2.0728086E-1,-2.4971019E-1,1.3447092E-1,1.1249546E-1,-1.3837488E-1,-2.0558341E-1,1.415222E-1,-1.3799678E-1,1.7504965E-1,-2.2880929E-2,1.2614705E-1,-1.2686108E-1,-3.3383496E-2,-5.12972E-3,-1.2945783E-1,5.5246484E-2,1.336425E-1,9.529256E-2,-1.1497861E-1,3.7795678E-2,7.7874266E-2,-1.284213E-1,-5.688217E-2,1.8473993E-1,-1.8076386E-1,-2.8067664E-3,1.2316053E-1,-1.2751518E-1,1.859328E-1,9.176927E-2,-1.3718309E-1],"categories":[],"categories_nodes":[],"categories_segments":[],"categories_sizes":[],"default_left":[0,0,0,0,0,0,0,0,0,0,0,0,0,0,0,0,0,0,0,0,0,0,0,0,0,0,0,0,0,0,0,0,0,0,0,0,0,0,0,0,0,0,0,0,0,0,0,0,0,0,0,0,0,0,0,0,0,0,0,0,0,0,0,0,0,0,0,0,0,0,0,0,0,0,0,0,0,0,0,0,0,0,0,0,0,0,0,0,0],"id":7,"left_children":[1,3,5,7,9,11,13,15,17,19,21,23,25,27,29,31,33,35,37,39,41,-1,-1,43,-1,45,-1,-1,47,49,51,53,55,57,59,61,63,65,67,69,71,-1,73,-1,75,77,-1,79,81,83,-1,85,87,-1,-1,-1,-1,-1,-1,-1,-1,-1,-1,-1,-1,-1,-1,-1,-1,-1,-1,-1,-1,-1,-1,-1,-1,-1,-1,-1,-1,-1,-1,-1,-1,-1,-1,-1,-1],"loss_changes":[6.939883E4,4.0651133E4,5.5196406E3,1.3009738E4,2.1096289E2,2.8686257E3,2.0110938E2,7.908051E3,2.0116457E4,1.9962305E2,2.3794151E2,3.9326416E1,6.9925793E2,9.953125E0,6.422173E2,5.3724297E3,2.191008E3,3.1958203E3,1.305916E4,3.3341797E1,1.7756189E2,0E0,0E0,2.3601074E0,0E0,1.7134521E1,0E0,0E0,1.9369775E2,2.4050757E2,3.3587402E2,3.1615664E3,3.2614E2,1.0692122E3,3.9593372E2,2.769963E3,1.1702773E3,1.0972365E4,4.9878643E3,2.4936523E1,4.9949536E2,0E0,2.564087E-1,0E0,1.5203403E1,1.715448E1,0E0,6.628418E-1,8.7731674E1,1.0962213E2,0E0,5.8376465E1,9.099825E2,0E0,0E0,0E0,0E0,0E0,0E0,0E0,0E0,0E0,0E0,0E0,0E0,0E0,0E0,0E0,0E0,0E0,0E0,0E0,0E0,0E0,0E0,0E0,0E0,0E0,0E0,0E0,0E0,0E0,0E0,0E0,0E0,0E0,0E0,0E0,0E0],"parents":[2147483647,0,0,1,1,2,2,3,3,4,4,5,5,6,6,7,7,8,8,9,9,10,10,11,11,12,12,13,13,14,14,15,15,16,16,17,17,18,18,19,19,20,20,23,23,25,25,28,28,29,29,30,30,31,31,32,32,33,33,34,34,35,35,36,36,37,37,38,38,39,39,40,40,42,42,44,44,45,45,47,47,48,48,49,49,51,51,52,52],"right_children":[2,4,6,8,10,12,14,16,18,20,22,24,26,28,30,32,34,36,38,40,42,-1,-1,44,-1,46,-1,-1,48,50,52,54,56,58,60,62,64,66,68,70,72,-1,74,-1,76,78,-1,80,82,84,-1,86,88,-1,-1,-1,-1,-1,-1,-1,-1,-1,-1,-1,-1,-1,-1,-1,-1,-1,-1,-1,-1,-1,-1,-1,-1,-1,-1,-1,-1,-1,-1,-1,-1,-1,-1,-1,-1],"split_conditions":[7.287287E-1,8.763764E-1,2.007007E-1,5.525526E-1,5.900901E-1,8.278278E-1,3.3683684E-1,1E0,5.689439E-1,9.899767E-1,5.2180976E-1,9.984638E-1,4.5095095E-1,1E0,3.4798592E-1,9.339339E-1,8.728729E-1,9.0405667E-1,6.411411E-1,9.73974E-1,9.709894E-1,-1.2733784E-1,1.3393098E-1,6.411411E-1,1.19689636E-1,9.35382E-1,-1.286875E-1,-1.2888148E-1,5.650595E-1,4.3043044E-1,8.278278E-1,9.80981E-1,6.836837E-1,6.8282527E-1,4.4444445E-1,9.861004E-1,5.6446445E-1,8.319422E-1,8.068216E-1,1E0,9.77978E-1,-1.266651E-1,7.773541E-1,-1.2768418E-1,8.646146E-1,4.4294295E-1,-1.3304693E-1,8.141475E-1,8.623624E-1,8.893894E-1,-1.3887873E-1,9.8999E-1,2.3573573E-1,1.23498596E-1,-8.902537E-2,1.9650985E-1,-1.3879591E-1,-1.5826821E-1,2.0728086E-1,-2.4971019E-1,1.3447092E-1,1.1249546E-1,-1.3837488E-1,-2.0558341E-1,1.415222E-1,-1.3799678E-1,1.7504965E-1,-2.2880929E-2,1.2614705E-1,-1.2686108E-1,-3.3383496E-2,-5.12972E-3,-1.2945783E-1,5.5246484E-2,1.336425E-1,9.529256E-2,-1.1497861E-1,3.7795678E-2,7.7874266E-2,-1.284213E-1,-5.688217E-2,1.8473993E-1,-1.8076386E-1,-2.8067664E-3,1.2316053E-1,-1.2751518E-1,1.859328E-1,9.176927E-2,-1.3718309E-1],"split_indices":[18,30,3,8,18,31,29,24,29,13,6,18,27,21,29,15,30,5,30,30,30,0,0,30,0,8,0,0,7,28,31,3,27,28,29,3,29,4,29,26,30,0,32,0,30,27,0,8,30,30,0,2,19,0,0,0,0,0,0,0,0,0,0,0,0,0,0,0,0,0,0,0,0,0,0,0,0,0,0,0,0,0,0,0,0,0,0,0,0],"split_type":[0,0,0,0,0,0,0,0,0,0,0,0,0,0,0,0,0,0,0,0,0,0,0,0,0,0,0,0,0,0,0,0,0,0,0,0,0,0,0,0,0,0,0,0,0,0,0,0,0,0,0,0,0,0,0,0,0,0,0,0,0,0,0,0,0,0,0,0,0,0,0,0,0,0,0,0,0,0,0,0,0,0,0,0,0,0,0,0,0],"sum_hessian":[1.4076602E5,9.998813E4,4.0777875E4,8.707302E4,1.2915116E4,5.7255405E3,3.5052336E4,4.5595207E4,4.1477812E4,1.2777673E4,1.3744345E2,1.7465103E3,3.97903E3,2.95509E4,5.501436E3,4.352581E4,2.0693994E3,2.0186844E4,2.1290969E4,1.2672129E4,1.0554474E2,6.9410194E1,6.803325E1,1.7407645E3,5.745829E0,3.7126057E3,2.6642435E2,2.8842031E4,7.088695E2,3.4882043E2,5.1526157E3,4.263185E4,8.939562E2,1.6207611E3,4.4863834E2,1.9609225E4,5.7761914E2,1.2308506E4,8.982463E3,9.661887E3,3.0102417E3,4.785528E1,5.7689457E1,1.7067594E3,3.400508E1,3.7077576E3,4.8481736E0,6.7239844E2,3.647104E1,2.774247E2,7.139573E1,4.4016465E3,7.50969E2,4.1920656E4,7.111964E2,2.91689E1,8.6478723E2,1.5371937E3,8.3567444E1,2.7740805E1,4.2089752E2,1.9159562E4,4.4966098E2,4.5496082E2,1.2265834E2,1.1063656E4,1.2448491E3,4.454325E3,4.528138E3,9.632419E3,2.9468233E1,3.6824936E2,2.6419924E3,2.3705165E0,5.531894E1,3.0978231E0,3.0907257E1,3.5976897E3,1.10067924E2,6.6886957E2,3.5288975E0,2.8921705E1,7.5493336E0,1.2689278E2,1.5053194E2,4.396532E3,5.114604E0,2.7067807E2,4.8029092E2],"tree_param":{"num_deleted":"0","num_feature":"36","num_nodes":"89","size_leaf_vector":"1"}},{"base_weights":[-5.2144034E-3,4.1965735E-1,-1.0658519E0,6.718442E-1,-1.0386678E0,-1.8113782E-1,-1.216796E0,4.0299708E-1,1.3333534E0,-2.2515419E-1,-1.174488E0,-1.2255465E0,2.497498E-1,-1.220585E0,4.015683E-1,7.124785E-1,-1.2056893E0,1.3362169E0,-2.1487045E0,-1.1320803E0,1.0178934E0,-1.1873368E0,1.9406648E-2,-1.2342352E0,1.1485968E-1,3.5071027E-1,-1.2514421E-1,-1.0679971E0,-1.2534324E0,1.4189818E0,-1.235562E-1,9.72141E-1,-2.5735518E-1,-1.3322313E0,2.7574239E0,1.3383666E0,-1.4337447E-1,-2.2979884E-1,1.0610377E-2,-1.4651347E0,9.8628753E-1,-2.195926E-1,1.1465036E0,-1.1984187E0,1.3858226E-1,-1.2376707E-1,1.2936714E-1,-1.2406011E-1,-8.925479E-1,2.5866486E-2,3.6368135E-1,-1.1619419E0,7.537723E-1,-1.2547321E0,-5.9782606E-1,-3.55107E-2,1.4689246E0,4.222936E-2,1.3555937E-1,-1.5593474E-1,2.9515395E-2,-1.3509397E-1,1.8051659E-1,3.1659505E-1,-1.5289329E-1,1.3390927E-1,-2.2266102E-1,-1.5238053E-1,1.2495492E-1,-1.1828669E-1,2.0636602E-1,1.2993751E-1,-1.3198948E-1,-1.1449852E-1,-1.2562102E-1,-1.2306118E-1,1.2671998E-1,8.679985E-2,-1.1063357E-1,7.320977E-2,-3.787913E-3,3.4537304E-2,6.1081138E-2,-1.2218517E-1,-1.0156989E-1,8.170226E-2,-1.3734573E-1,-1.2548344E-1,1.4756301E-2,-1.2531357E-1,2.4346364E-1,1.306986E-1,1.8523903E-1],"categories":[],"categories_nodes":[],"categories_segments":[],"categories_sizes":[],"default_left":[0,0,0,0,0,0,0,0,0,0,0,0,0,0,0,0,0,0,0,0,0,0,0,0,0,0,0,0,0,0,0,0,0,0,0,0,0,0,0,0,0,0,0,0,0,0,0,0,0,0,0,0,0,0,0,0,0,0,0,0,0,0,0,0,0,0,0,0,0,0,0,0,0,0,0,0,0,0,0,0,0,0,0,0,0,0,0,0,0,0,0,0,0],"id":8,"left_children":[1,3,5,7,9,11,13,15,17,19,21,23,25,27,29,31,33,35,37,39,41,43,45,47,-1,49,-1,51,53,55,-1,57,59,61,63,65,-1,-1,-1,67,69,-1,71,73,75,-1,-1,-1,77,79,81,83,85,87,89,-1,91,-1,-1,-1,-1,-1,-1,-1,-1,-1,-1,-1,-1,-1,-1,-1,-1,-1,-1,-1,-1,-1,-1,-1,-1,-1,-1,-1,-1,-1,-1,-1,-1,-1,-1,-1,-1],"loss_changes":[6.015669E4,3.505389E4,5.098492E3,1.4451316E4,1.5524355E3,2.5050732E3,2.0048438E2,2.8767268E4,2.370039E2,2.2690894E3,1.8475E2,3.495508E1,5.977538E2,1.617539E2,1.2989691E2,1.2203527E4,4.679044E3,1.4163281E2,6.8676147E0,8.223999E2,3.5349292E2,1.7522461E2,2.0856175E2,2.4172363E0,0E0,1.5553467E1,0E0,9.885137E2,2.2058594E1,4.766815E0,0E0,8.058715E3,7.3630986E3,5.32749E2,5.1053906E2,6.3664062E1,0E0,0E0,0E0,1.6211792E2,3.732882E2,0E0,3.0980505E2,3.5046875E1,1.5554103E2,0E0,0E0,0E0,1.3456316E1,6.4608073E0,1.5858459E1,4.6842773E1,3.9279694E1,4.015625E0,1.1210181E2,0E0,4.8485565E-1,0E0,0E0,0E0,0E0,0E0,0E0,0E0,0E0,0E0,0E0,0E0,0E0,0E0,0E0,0E0,0E0,0E0,0E0,0E0,0E0,0E0,0E0,0E0,0E0,0E0,0E0,0E0,0E0,0E0,0E0,0E0,0E0,0E0,0E0,0E0,0E0],"parents":[2147483647,0,0,1,1,2,2,3,3,4,4,5,5,6,6,7,7,8,8,9,9,10,10,11,11,12,12,13,13,14,14,15,15,16,16,17,17,18,18,19,19,20,20,21,21,22,22,23,23,25,25,27,27,28,28,29,29,31,31,32,32,33,33,34,34,35,35,39,39,40,40,42,42,43,43,44,44,48,48,49,49,50,50,51,51,52,52,53,53,54,54,56,56],"right_children":[2,4,6,8,10,12,14,16,18,20,22,24,26,28,30,32,34,36,38,40,42,44,46,48,-1,50,-1,52,54,56,-1,58,60,62,64,66,-1,-1,-1,68,70,-1,72,74,76,-1,-1,-1,78,80,82,84,86,88,90,-1,92,-1,-1,-1,-1,-1,-1,-1,-1,-1,-1,-1,-1,-1,-1,-1,-1,-1,-1,-1,-1,-1,-1,-1,-1,-1,-1,-1,-1,-1,-1,-1,-1,-1,-1,-1,-1],"split_conditions":[7.287287E-1,8.623624E-1,2.007007E-1,7.747748E-1,8.763764E-1,8.278278E-1,9.981005E-1,4.83984E-1,9.434434E-1,8.728729E-1,5.900901E-1,9.984638E-1,4.5095095E-1,4.104104E-1,9.9825585E-1,4.3543544E-1,9.895423E-1,9.0784216E-1,8.032067E-1,9.5181775E-1,4.944945E-1,9.899767E-1,5.2180976E-1,6.411411E-1,1.1485968E-1,6.9785637E-1,-1.2514421E-1,3.978979E-1,8.070759E-1,5.940941E-1,-1.235562E-1,2.3573573E-1,4.124124E-1,9.9071085E-1,5.605606E-1,9.70971E-1,-1.4337447E-1,-2.2979884E-1,1.0610377E-2,8.096027E-1,5.1822025E-1,-2.195926E-1,6.999903E-1,7.086719E-1,9.709894E-1,-1.2376707E-1,1.2936714E-1,-1.2406011E-1,8.646146E-1,6.9054836E-1,1.8618618E-1,8.893894E-1,4.944945E-1,1E0,2.3612173E-1,-3.55107E-2,6.5748644E-1,4.222936E-2,1.3555937E-1,-1.5593474E-1,2.9515395E-2,-1.3509397E-1,1.8051659E-1,3.1659505E-1,-1.5289329E-1,1.3390927E-1,-2.2266102E-1,-1.5238053E-1,1.2495492E-1,-1.1828669E-1,2.0636602E-1,1.2993751E-1,-1.3198948E-1,-1.1449852E-1,-1.2562102E-1,-1.2306118E-1,1.2671998E-1,8.679985E-2,-1.1063357E-1,7.320977E-2,-3.787913E-3,3.4537304E-2,6.1081138E-2,-1.2218517E-1,-1.0156989E-1,8.170226E-2,-1.3734573E-1,-1.2548344E-1,1.4756301E-2,-1.2531357E-1,2.4346364E-1,1.306986E-1,1.8523903E-1],"split_indices":[18,30,3,30,30,31,1,0,15,30,18,18,27,26,1,15,10,5,19,13,29,13,6,30,0,6,0,27,4,5,0,19,0,8,2,29,0,0,0,19,17,0,19,7,30,0,0,0,30,6,3,30,29,32,16,0,3,0,0,0,0,0,0,0,0,0,0,0,0,0,0,0,0,0,0,0,0,0,0,0,0,0,0,0,0,0,0,0,0,0,0,0,0],"split_type":[0,0,0,0,0,0,0,0,0,0,0,0,0,0,0,0,0,0,0,0,0,0,0,0,0,0,0,0,0,0,0,0,0,0,0,0,0,0,0,0,0,0,0,0,0,0,0,0,0,0,0,0,0,0,0,0,0,0,0,0,0,0,0,0,0,0,0,0,0,0,0,0,0,0,0,0,0,0,0,0,0,0,0,0,0,0,0,0,0,0,0,0,0],"sum_hessian":[1.3349119E5,9.5311695E4,3.8179492E4,8.1260016E4,1.4051681E4,5.564868E3,3.2614625E4,5.7779277E4,2.348074E4,2.0107378E3,1.2040943E4,1.6247843E3,3.940084E3,3.2538691E4,7.593367E1,4.8457508E4,9.32177E3,2.3462062E4,1.867813E1,1.1625974E3,8.4814044E2,1.1912742E4,1.2820103E2,1.619338E3,5.4462233E0,3.6925156E3,2.4756839E2,5.769739E3,2.6768953E4,4.6912563E1,2.9021105E1,3.822356E4,1.0233947E4,9.033979E3,2.877906E2,2.3444385E4,1.7678057E1,1.7500336E1,1.1777937E0,1.0049114E3,1.57686E2,3.20163E1,8.1612415E2,1.1814097E4,9.864535E1,6.45502E1,6.365083E1,1.5871378E3,3.220025E1,1.4189645E2,3.5506191E3,5.4871406E3,2.8259802E2,2.6715076E4,5.387661E1,1.1171852E0,4.579538E1,1.5705269E4,2.251829E4,3.0484436E3,7.1855044E3,8.980994E3,5.298434E1,2.6298706E2,2.4803537E1,2.3440234E4,4.1493206E0,9.840817E2,2.0829603E1,5.229622E1,1.05389786E2,7.689373E2,4.7186825E1,6.149308E3,5.6647886E3,4.453133E1,5.4114017E1,3.1553972E0,2.9044851E1,1.087945E1,1.31017E2,3.3079517E3,2.4266765E2,3.887312E3,1.5998289E3,2.750361E2,7.5619125E0,2.6713236E4,1.840746E0,4.478534E1,9.09127E0,3.52975E1,1.0497878E1],"tree_param":{"num_deleted":"0","num_feature":"36","num_nodes":"93","size_leaf_vector":"1"}},{"base_weights":[-5.4164133E-3,3.9854273E-1,-1.0308547E0,6.158296E-1,-1.1401776E0,-1.692051E-1,-1.1848236E0,4.139653E-1,1.273923E0,-1.1526344E0,1.8727835E-2,-1.1939602E0,2.2677904E-1,-1.2206116E0,-9.968465E-1,8.4805787E-1,-2.510028E-1,1.2936227E0,-1.2553908E-1,-2.0292449E-1,-1.1674012E0,-1.2067806E-1,1.2547399E-1,-1.2025704E0,1.1056458E-1,3.1748796E-1,-1.22101344E-1,-1.2240461E-1,-1.0808202E0,2.8860036E-1,-1.0923382E0,-1.4689771E0,9.5947796E-1,-9.7501194E-1,4.7525755E-1,1.2949479E0,-1.2535249E-1,-1.21558666E-1,1.1822901E0,-1.108568E0,-1.2321516E0,-1.2092328E-1,-8.522852E-1,2.5011945E-1,3.7933916E-1,-1.2152377E0,1.0488973E0,6.5995795E-1,-1.2984198E-1,-1.2029886E0,-4.8502403E-1,-1.606964E-1,1.966285E-1,1.05224624E-1,-6.887278E-2,-1.0626801E-1,2.5773263E-1,1.190957E-1,1.1002847E-2,8.1868544E-2,1.2999664E-1,1.4951639E-1,-1.1784514E-1,1.1990664E-1,-1.12783946E-1,-1.288468E-1,-1.2248423E-1,7.937873E-2,-1.0666948E-1,-2.1131767E-2,2.6129624E-2,4.6946224E-2,2.6833925E-2,-1.218498E-1,-4.7709975E-2,1.7719771E-1,-1.6600943E-1,-2.6841199E-3,1.20729804E-1,-1.2075541E-1,1.7501178E-1,7.456943E-2,-1.274892E-1],"categories":[],"categories_nodes":[],"categories_segments":[],"categories_sizes":[],"default_left":[0,0,0,0,0,0,0,0,0,0,0,0,0,0,0,0,0,0,0,0,0,0,0,0,0,0,0,0,0,0,0,0,0,0,0,0,0,0,0,0,0,0,0,0,0,0,0,0,0,0,0,0,0,0,0,0,0,0,0,0,0,0,0,0,0,0,0,0,0,0,0,0,0,0,0,0,0,0,0,0,0,0,0],"id":9,"left_children":[1,3,5,7,9,11,13,15,17,19,21,23,25,27,29,31,33,35,-1,37,39,-1,-1,41,-1,43,-1,-1,45,47,49,51,53,55,57,59,-1,-1,61,63,65,-1,67,69,71,73,75,77,-1,79,81,-1,-1,-1,-1,-1,-1,-1,-1,-1,-1,-1,-1,-1,-1,-1,-1,-1,-1,-1,-1,-1,-1,-1,-1,-1,-1,-1,-1,-1,-1,-1,-1],"loss_changes":[5.2296008E4,3.0281785E4,4.73316E3,1.0542426E4,1.6181055E2,2.1956023E3,2.0241797E2,1.7531723E4,9.298418E2,1.5526465E2,1.8353563E2,3.1188965E1,5.129631E2,1.08828125E1,5.952329E2,9.488086E3,1.2614301E4,6.401758E1,0E0,2.4127547E2,4.0226562E1,0E0,0E0,2.4768066E0,0E0,1.5212769E1,0E0,0E0,1.7825262E2,1.9883946E2,3.0259814E2,8.0253564E2,5.361635E3,3.74404E3,3.1304614E3,4.3095703E1,0E0,0E0,5.546894E1,2.5619336E2,5.576172E-1,0E0,1.1942589E1,9.139236E0,1.9014465E1,8.1921387E-1,7.58864E1,1.02616844E2,0E0,5.3558594E1,6.785074E2,0E0,0E0,0E0,0E0,0E0,0E0,0E0,0E0,0E0,0E0,0E0,0E0,0E0,0E0,0E0,0E0,0E0,0E0,0E0,0E0,0E0,0E0,0E0,0E0,0E0,0E0,0E0,0E0,0E0,0E0,0E0,0E0],"parents":[2147483647,0,0,1,1,2,2,3,3,4,4,5,5,6,6,7,7,8,8,9,9,10,10,11,11,12,12,13,13,14,14,15,15,16,16,17,17,19,19,20,20,23,23,25,25,28,28,29,29,30,30,31,31,32,32,33,33,34,34,35,35,38,38,39,39,40,40,42,42,43,43,44,44,45,45,46,46,47,47,49,49,50,50],"right_children":[2,4,6,8,10,12,14,16,18,20,22,24,26,28,30,32,34,36,-1,38,40,-1,-1,42,-1,44,-1,-1,46,48,50,52,54,56,58,60,-1,-1,62,64,66,-1,68,70,72,74,76,78,-1,80,82,-1,-1,-1,-1,-1,-1,-1,-1,-1,-1,-1,-1,-1,-1,-1,-1,-1,-1,-1,-1,-1,-1,-1,-1,-1,-1,-1,-1,-1,-1,-1,-1],"split_conditions":[7.287287E-1,8.763764E-1,2.007007E-1,8.509229E-1,5.900901E-1,8.278278E-1,3.3683684E-1,3.078078E-1,9.638643E-1,2.5691783E-1,5.2180976E-1,9.984638E-1,4.5095095E-1,1E0,3.4798592E-1,3.963964E-1,6.411411E-1,9.70971E-1,-1.2553908E-1,9.73974E-1,7.086719E-1,-1.2067806E-1,1.2547399E-1,6.411411E-1,1.1056458E-1,4.164164E-1,-1.22101344E-1,-1.2240461E-1,5.650595E-1,4.3043044E-1,8.278278E-1,6.8499875E-1,4.3543544E-1,9.479479E-1,7.462462E-1,8.1986624E-1,-1.2535249E-1,-1.21558666E-1,9.77978E-1,3.9228886E-1,2.5975975E-1,-1.2092328E-1,8.646146E-1,7.0608693E-1,8.278474E-1,8.141475E-1,8.623624E-1,8.893894E-1,-1.2984198E-1,9.8999E-1,2.3573573E-1,-1.606964E-1,1.966285E-1,1.05224624E-1,-6.887278E-2,-1.0626801E-1,2.5773263E-1,1.190957E-1,1.1002847E-2,8.1868544E-2,1.2999664E-1,1.4951639E-1,-1.1784514E-1,1.1990664E-1,-1.12783946E-1,-1.288468E-1,-1.2248423E-1,7.937873E-2,-1.0666948E-1,-2.1131767E-2,2.6129624E-2,4.6946224E-2,2.6833925E-2,-1.218498E-1,-4.7709975E-2,1.7719771E-1,-1.6600943E-1,-2.6841199E-3,1.20729804E-1,-1.2075541E-1,1.7501178E-1,7.456943E-2,-1.274892E-1],"split_indices":[18,30,3,35,18,31,29,27,0,17,6,18,27,21,29,29,30,29,0,30,7,0,0,30,0,27,0,0,7,28,31,19,15,12,31,6,0,0,30,17,27,0,30,4,32,8,30,30,0,2,19,0,0,0,0,0,0,0,0,0,0,0,0,0,0,0,0,0,0,0,0,0,0,0,0,0,0,0,0,0,0,0,0],"split_type":[0,0,0,0,0,0,0,0,0,0,0,0,0,0,0,0,0,0,0,0,0,0,0,0,0,0,0,0,0,0,0,0,0,0,0,0,0,0,0,0,0,0,0,0,0,0,0,0,0,0,0,0,0,0,0,0,0,0,0,0,0,0,0,0,0,0,0,0,0,0,0,0,0,0,0,0,0,0,0,0,0,0,0],"sum_hessian":[1.2624516E5,9.05677E4,3.5677453E4,7.936146E4,1.1206246E4,5.4090615E3,3.0268393E4,6.0733598E4,1.8627861E4,1.108708E4,1.1916654E2,1.5070355E3,3.9020261E3,2.5422791E4,4.8456006E3,3.6745668E4,2.3987928E4,1.8484383E4,1.4347816E2,1.6997668E2,1.0917104E4,5.98494E1,5.9317142E1,1.5018892E3,5.1463547E0,3.6727002E3,2.2932591E2,2.4805574E4,6.1721765E2,3.3493256E2,4.510668E3,1.6853711E3,3.5060297E4,1.2012409E4,1.1975518E4,1.8475264E4,9.120217E0,9.826351E1,7.1713165E1,5.7293984E3,5.1877046E3,1.4714502E3,3.0438944E1,1.7603572E3,1.9123429E3,5.8097845E2,3.623918E1,2.7189432E2,6.3038242E1,3.8146687E3,6.959996E2,1.6207993E3,6.457175E1,3.3192445E4,1.8678541E3,1.1723779E4,2.886305E2,4.0455789E3,7.9299385E3,1.9435901E2,1.8280904E4,6.3644844E1,8.068322E0,4.6944153E1,5.682454E3,5.758283E2,4.6118765E3,3.1964965E0,2.7242449E1,4.1207092E1,1.7191501E3,1.0536409E3,8.58702E2,5.7777576E2,3.2026603E0,2.8877209E1,7.3619704E0,1.2100673E2,1.5088759E2,3.8093704E3,5.2982483E0,2.7209528E2,4.2390433E2],"tree_param":{"num_deleted":"0","num_feature":"36","num_nodes":"83","size_leaf_vector":"1"}},{"base_weights":[-5.5931984E-3,3.7869316E-1,-9.994434E-1,5.834612E-1,-1.1099235E0,-1.5808246E-1,-1.1574072E0,3.899496E-1,1.2410014E0,-1.122029E0,1.8148316E-2,-1.1662827E0,2.0589583E-1,-1.1946998E0,-9.639192E-1,8.0107623E-1,-2.2911488E-1,1.2602935E0,-1.2230921E-1,-1.9816078E-1,-1.1364077E0,-1.17982864E-1,1.22119464E-1,-1.1748415E0,1.0669891E-1,2.874402E-1,-1.1946934E-1,-1.1982185E-1,-1.0522603E0,2.609341E-1,-1.0607986E0,2.2591004E-1,1.2366302E0,-9.232197E-1,4.4077584E-1,1.2615584E0,-1.2053036E-1,-1.1887782E-1,1.1401463E0,-1.0751357E0,-1.2043484E-1,-1.1818389E0,-8.149431E-1,2.8985912E-1,-1.2975669E-1,-1.1879596E0,9.5014095E-1,5.9121597E-1,-1.2600224E-1,-1.174438E0,-4.5828375E-1,7.71549E-2,-1.760628E-1,1.25435E-1,-8.599267E-2,-1.0081793E-1,2.2195561E-1,-3.4200044E-3,9.348684E-2,1.3554454E-1,1.2531827E-1,1.442986E-1,-1.1453265E-1,1.0207585E-1,-1.09500185E-1,-1.1961404E-1,-1.11278586E-1,7.282601E-2,-1.0300493E-1,2.7874077E-2,6.562569E-2,-1.1914011E-1,-4.5107186E-2,1.6050583E-1,-1.5449812E-1,5.994011E-3,1.1669548E-1,-1.1792101E-1,1.4854158E-1,6.697612E-2,-1.2372681E-1],"categories":[],"categories_nodes":[],"categories_segments":[],"categories_sizes":[],"default_left":[0,0,0,0,0,0,0,0,0,0,0,0,0,0,0,0,0,0,0,0,0,0,0,0,0,0,0,0,0,0,0,0,0,0,0,0,0,0,0,0,0,0,0,0,0,0,0,0,0,0,0,0,0,0,0,0,0,0,0,0,0,0,0,0,0,0,0,0,0,0,0,0,0,0,0,0,0,0,0,0,0],"id":10,"left_children":[1,3,5,7,9,11,13,15,17,19,21,23,25,27,29,31,33,35,-1,37,39,-1,-1,41,-1,43,-1,-1,45,47,49,51,53,55,57,59,-1,-1,61,63,-1,65,67,69,-1,71,73,75,-1,77,79,-1,-1,-1,-1,-1,-1,-1,-1,-1,-1,-1,-1,-1,-1,-1,-1,-1,-1,-1,-1,-1,-1,-1,-1,-1,-1,-1,-1,-1,-1],"loss_changes":[4.556422E4,2.6226031E4,4.421117E3,9.623107E3,1.4209668E2,1.9303378E3,2.0094922E2,1.4873108E4,8.190332E2,1.3651367E2,1.6205806E2,2.7923828E1,4.4180573E2,1.05078125E1,5.3795215E2,8.79685E3,1.0844324E4,5.473828E1,0E0,2.1209686E2,4.0898438E1,0E0,0E0,2.538208E0,0E0,1.4383514E1,0E0,0E0,1.571529E2,1.6798578E2,2.8697803E2,1.6405521E4,7.434668E2,3.060581E3,2.7853445E3,1.1712891E1,0E0,0E0,4.8804054E1,2.2340381E2,0E0,1.3793945E-2,1.062232E1,1.4681091E1,0E0,8.2751465E-1,6.293898E1,8.3802666E1,0E0,4.6586426E1,5.877915E2,0E0,0E0,0E0,0E0,0E0,0E0,0E0,0E0,0E0,0E0,0E0,0E0,0E0,0E0,0E0,0E0,0E0,0E0,0E0,0E0,0E0,0E0,0E0,0E0,0E0,0E0,0E0,0E0,0E0,0E0],"parents":[2147483647,0,0,1,1,2,2,3,3,4,4,5,5,6,6,7,7,8,8,9,9,10,10,11,11,12,12,13,13,14,14,15,15,16,16,17,17,19,19,20,20,23,23,25,25,28,28,29,29,30,30,31,31,32,32,33,33,34,34,35,35,38,38,39,39,41,41,42,42,43,43,45,45,46,46,47,47,49,49,50,50],"right_children":[2,4,6,8,10,12,14,16,18,20,22,24,26,28,30,32,34,36,-1,38,40,-1,-1,42,-1,44,-1,-1,46,48,50,52,54,56,58,60,-1,-1,62,64,-1,66,68,70,-1,72,74,76,-1,78,80,-1,-1,-1,-1,-1,-1,-1,-1,-1,-1,-1,-1,-1,-1,-1,-1,-1,-1,-1,-1,-1,-1,-1,-1,-1,-1,-1,-1,-1,-1],"split_conditions":[7.287287E-1,8.763764E-1,2.007007E-1,8.517642E-1,5.900901E-1,8.278278E-1,3.3683684E-1,3.078078E-1,9.638643E-1,2.5691783E-1,5.2180976E-1,9.984638E-1,4.5095095E-1,1E0,3.4798592E-1,1E0,6.411411E-1,9.70971E-1,-1.2230921E-1,9.73974E-1,7.086719E-1,-1.17982864E-1,1.22119464E-1,6.411411E-1,1.0669891E-1,9.35382E-1,-1.1946934E-1,-1.1982185E-1,5.650595E-1,4.3043044E-1,8.278278E-1,5.6548285E-1,8.423998E-1,9.479479E-1,7.747748E-1,7.747748E-1,-1.2053036E-1,-1.1887782E-1,9.77978E-1,3.9228886E-1,-1.2043484E-1,3.963964E-1,8.646146E-1,4.4294295E-1,-1.2975669E-1,8.141475E-1,8.623624E-1,8.298298E-1,-1.2600224E-1,9.8999E-1,4.079079E-1,7.71549E-2,-1.760628E-1,1.25435E-1,-8.599267E-2,-1.0081793E-1,2.2195561E-1,-3.4200044E-3,9.348684E-2,1.3554454E-1,1.2531827E-1,1.442986E-1,-1.1453265E-1,1.0207585E-1,-1.09500185E-1,-1.1961404E-1,-1.11278586E-1,7.282601E-2,-1.0300493E-1,2.7874077E-2,6.562569E-2,-1.1914011E-1,-4.5107186E-2,1.6050583E-1,-1.5449812E-1,5.994011E-3,1.1669548E-1,-1.1792101E-1,1.4854158E-1,6.697612E-2,-1.2372681E-1],"split_indices":[18,30,3,35,18,31,29,27,0,17,6,18,27,21,29,22,30,29,0,30,7,0,0,30,0,8,0,0,7,28,31,29,9,12,30,30,0,0,30,17,0,29,30,27,0,8,30,17,0,2,0,0,0,0,0,0,0,0,0,0,0,0,0,0,0,0,0,0,0,0,0,0,0,0,0,0,0,0,0,0,0],"split_type":[0,0,0,0,0,0,0,0,0,0,0,0,0,0,0,0,0,0,0,0,0,0,0,0,0,0,0,0,0,0,0,0,0,0,0,0,0,0,0,0,0,0,0,0,0,0,0,0,0,0,0,0,0,0,0,0,0,0,0,0,0,0,0,0,0,0,0,0,0,0,0,0,0,0,0,0,0,0,0,0,0],"sum_hessian":[1.19300086E5,8.603431E4,3.3265777E4,7.5631375E4,1.04029375E4,5.2586523E3,2.8007123E4,5.843559E4,1.7195785E4,1.0292492E4,1.10445206E2,1.3943032E3,3.864349E3,2.3477012E4,4.530112E3,3.5115055E4,2.332054E4,1.7062686E4,1.3310011E2,1.5796017E2,1.0134532E4,5.5348866E1,5.509634E1,1.3894521E3,4.8510194E0,3.6524905E3,2.1185869E2,2.290381E4,5.732001E2,3.3192072E2,4.1981914E3,1.5132933E4,1.998212E4,1.1453087E4,1.1867452E4,1.7054424E4,8.260836E0,9.083538E1,6.7124794E1,5.3376343E3,4.7968975E3,1.3607125E3,2.873972E1,3.6477407E3,4.749741E0,5.372016E2,3.5998497E1,2.7320453E2,5.871618E1,3.5312234E3,6.669678E2,1.1872536E4,3.2603972E3,1.9815047E4,1.6707245E2,1.1152283E4,3.0080365E2,6.051254E3,5.816198E3,1.3836497E3,1.5670774E4,5.9596504E1,7.5282927E0,4.9645027E1,5.2879893E3,1.1137268E3,2.4698567E2,3.2240849E0,2.5515635E1,3.5420188E3,1.05721985E2,5.3409033E2,3.111255E0,2.8796688E1,7.201807E0,1.4266309E2,1.3054144E2,3.525455E3,5.7684193E0,2.725006E2,3.9446716E2],"tree_param":{"num_deleted":"0","num_feature":"36","num_nodes":"81","size_leaf_vector":"1"}},{"base_weights":[-5.550428E-3,3.6087444E-1,-9.705005E-1,5.760834E-1,-9.471531E-1,-1.4769927E-1,-1.1332489E0,3.3332998E-1,1.2217759E0,-2.541319E-1,-1.0825942E0,-1.1418465E0,1.8685608E-1,-1.1722183E0,-9.33679E-1,5.962064E-1,-1.1119097E0,1.2251391E0,-2.109908E0,-1.1080201E0,9.465704E-1,-1.0943745E0,1.7648024E-2,-1.1503776E0,1.0318108E-1,2.601952E-1,-1.1717808E-1,-1.17581844E-1,-1.0272108E0,2.3635364E-1,-1.0322564E0,8.3936846E-1,-2.3304385E-1,-1.236333E0,1.7686023E0,1.2274125E0,-1.308451E-1,-2.2410002E-1,4.4999496E-4,-1.4218949E0,7.767115E-1,-1.8932872E-1,1.0712428E0,-1.9403669E-1,-1.1083899E0,-1.1561241E-1,1.1920255E-1,-1.1577501E0,-7.7994066E-1,2.647828E-1,-4.8724476E-1,-1.1640431E0,8.7139475E-1,5.3095037E-1,-1.2267371E-1,-1.1491797E0,-4.3377742E-1,3.0509396E-2,1.2581865E-1,-1.3619488E-1,2.1938577E-2,-1.2543176E-1,1.5468422E-1,1.9995154E-1,-1.3768491E-1,1.237792E-1,8.7747246E-2,-1.471742E-1,1.12562515E-1,-1.212402E-1,1.7569926E-1,1.23135686E-1,-1.3109677E-1,-1.1653302E-1,1.1030479E-1,-1.0441817E-1,-1.1802018E-1,-1.1733077E-1,-1.0833132E-1,6.69886E-2,-9.957569E-2,2.5459444E-2,6.0406696E-2,-2.290309E-2,-1.23495795E-1,-1.1677009E-1,-4.2632557E-2,1.473028E-1,-1.4503396E-1,-4.04711E-3,9.84123E-2,-1.1541622E-1,1.2839308E-1,6.0531117E-2,-1.2028196E-1],"categories":[],"categories_nodes":[],"categories_segments":[],"categories_sizes":[],"default_left":[0,0,0,0,0,0,0,0,0,0,0,0,0,0,0,0,0,0,0,0,0,0,0,0,0,0,0,0,0,0,0,0,0,0,0,0,0,0,0,0,0,0,0,0,0,0,0,0,0,0,0,0,0,0,0,0,0,0,0,0,0,0,0,0,0,0,0,0,0,0,0,0,0,0,0,0,0,0,0,0,0,0,0,0,0,0,0,0,0,0,0,0,0,0,0],"id":11,"left_children":[1,3,5,7,9,11,13,15,17,19,21,23,25,27,29,31,33,35,37,39,41,43,45,47,-1,49,-1,-1,51,53,55,57,59,61,63,65,-1,-1,-1,67,69,-1,71,73,75,-1,-1,77,79,81,83,85,87,89,-1,91,93,-1,-1,-1,-1,-1,-1,-1,-1,-1,-1,-1,-1,-1,-1,-1,-1,-1,-1,-1,-1,-1,-1,-1,-1,-1,-1,-1,-1,-1,-1,-1,-1,-1,-1,-1,-1,-1,-1],"loss_changes":[3.979271E4,2.2961793E4,4.1475547E3,1.0978594E4,1.0814639E3,1.7017949E3,2.0001562E2,1.934125E4,2.170332E2,1.9340881E3,1.2496777E2,2.5076782E1,3.81804E2,1.0082031E1,4.880598E2,8.685568E3,2.8102266E3,1.1172461E2,5.4615326E0,6.5318616E2,2.7964508E2,1.201416E2,1.4350807E2,2.6031494E0,0E0,1.2587997E1,0E0,0E0,1.3920825E2,1.4265605E2,2.724756E2,7.4524883E3,4.9889634E3,3.779004E2,2.3868164E2,6.8302734E1,0E0,0E0,0E0,1.21694336E2,3.1023352E2,0E0,2.8836096E2,1.8700403E2,4.207129E1,0E0,0E0,1.8395996E-1,9.464184E0,1.2331772E1,4.0645804E0,8.423462E-1,5.288584E1,7.123607E1,0E0,4.103711E1,5.114887E2,0E0,0E0,0E0,0E0,0E0,0E0,0E0,0E0,0E0,0E0,0E0,0E0,0E0,0E0,0E0,0E0,0E0,0E0,0E0,0E0,0E0,0E0,0E0,0E0,0E0,0E0,0E0,0E0,0E0,0E0,0E0,0E0,0E0,0E0,0E0,0E0,0E0,0E0],"parents":[2147483647,0,0,1,1,2,2,3,3,4,4,5,5,6,6,7,7,8,8,9,9,10,10,11,11,12,12,13,13,14,14,15,15,16,16,17,17,18,18,19,19,20,20,21,21,22,22,23,23,25,25,28,28,29,29,30,30,31,31,32,32,33,33,34,34,35,35,39,39,40,40,42,42,43,43,44,44,47,47,48,48,49,49,50,50,51,51,52,52,53,53,55,55,56,56],"right_children":[2,4,6,8,10,12,14,16,18,20,22,24,26,28,30,32,34,36,38,40,42,44,46,48,-1,50,-1,-1,52,54,56,58,60,62,64,66,-1,-1,-1,68,70,-1,72,74,76,-1,-1,78,80,82,84,86,88,90,-1,92,94,-1,-1,-1,-1,-1,-1,-1,-1,-1,-1,-1,-1,-1,-1,-1,-1,-1,-1,-1,-1,-1,-1,-1,-1,-1,-1,-1,-1,-1,-1,-1,-1,-1,-1,-1,-1,-1,-1],"split_conditions":[7.287287E-1,8.623624E-1,2.007007E-1,7.747748E-1,8.763764E-1,8.278278E-1,3.3683684E-1,4.83984E-1,9.434434E-1,8.728729E-1,5.900901E-1,9.984638E-1,4.5095095E-1,1E0,3.4798592E-1,4.3543544E-1,9.895423E-1,9.0405667E-1,8.032067E-1,9.5181775E-1,4.944945E-1,2.5691783E-1,5.2180976E-1,6.411411E-1,1.0318108E-1,9.212546E-1,-1.1717808E-1,-1.17581844E-1,5.650595E-1,4.3043044E-1,8.278278E-1,2.3573573E-1,4.124124E-1,9.9071085E-1,5.605606E-1,9.149149E-1,-1.308451E-1,-2.2410002E-1,4.4999496E-4,8.096027E-1,5.1822025E-1,-1.8932872E-1,6.999903E-1,9.73974E-1,7.086719E-1,-1.1561241E-1,1.1920255E-1,3.963964E-1,8.646146E-1,4.4294295E-1,9.35382E-1,8.141475E-1,8.623624E-1,8.893894E-1,-1.2267371E-1,9.8999E-1,4.079079E-1,3.0509396E-2,1.2581865E-1,-1.3619488E-1,2.1938577E-2,-1.2543176E-1,1.5468422E-1,1.9995154E-1,-1.3768491E-1,1.237792E-1,8.7747246E-2,-1.471742E-1,1.12562515E-1,-1.212402E-1,1.7569926E-1,1.23135686E-1,-1.3109677E-1,-1.1653302E-1,1.1030479E-1,-1.0441817E-1,-1.1802018E-1,-1.1733077E-1,-1.0833132E-1,6.69886E-2,-9.957569E-2,2.5459444E-2,6.0406696E-2,-2.290309E-2,-1.23495795E-1,-1.1677009E-1,-4.2632557E-2,1.473028E-1,-1.4503396E-1,-4.04711E-3,9.84123E-2,-1.1541622E-1,1.2839308E-1,6.0531117E-2,-1.2028196E-1],"split_indices":[18,30,3,30,30,31,29,0,15,30,18,18,27,21,29,15,10,5,19,13,29,17,6,30,0,8,0,0,7,28,31,19,0,8,2,0,0,0,0,19,17,0,19,30,7,0,0,29,30,27,8,8,30,30,0,2,0,0,0,0,0,0,0,0,0,0,0,0,0,0,0,0,0,0,0,0,0,0,0,0,0,0,0,0,0,0,0,0,0,0,0,0,0,0,0],"split_type":[0,0,0,0,0,0,0,0,0,0,0,0,0,0,0,0,0,0,0,0,0,0,0,0,0,0,0,0,0,0,0,0,0,0,0,0,0,0,0,0,0,0,0,0,0,0,0,0,0,0,0,0,0,0,0,0,0,0,0,0,0,0,0,0,0,0,0,0,0,0,0,0,0,0,0,0,0,0,0,0,0,0,0,0,0,0,0,0,0,0,0,0,0,0,0],"sum_hessian":[1.1253977E5,8.15667E4,3.0973068E4,7.004312E4,1.1523592E4,5.115041E3,2.5858027E4,5.090607E4,1.9137045E4,1.8844038E3,9.6391875E3,1.2873137E3,3.8277275E3,2.162961E4,4.228417E3,4.30722E4,7.8338696E3,1.9118377E4,1.8667381E1,1.1012904E3,7.8311346E2,9.537079E3,1.0210843E2,1.28275E3,4.563711E0,3.6324563E3,1.9527121E2,2.1098666E4,5.30944E2,3.2846066E2,3.899956E3,3.330587E4,9.76633E3,7.510045E3,3.238246E2,1.9101754E4,1.6624226E1,1.7521206E1,1.1461754E0,9.442798E2,1.5701059E2,3.2337017E1,7.507764E2,1.464133E2,9.390666E3,5.107515E1,5.103328E1,1.2556348E3,2.7115215E1,3.610939E3,2.1517359E1,4.9561215E2,3.5331802E1,2.7393942E2,5.4521236E1,3.2617886E3,6.381675E2,1.4636379E4,1.866949E4,2.7936326E3,6.9726978E3,7.462373E3,4.7671776E1,3.0201727E2,2.1807308E1,1.8549033E4,5.527205E2,9.2657196E2,1.7707867E1,5.1755463E1,1.0525513E2,7.039457E2,4.6830772E1,8.3778885E1,6.2634415E1,4.966014E3,4.424652E3,1.026359E3,2.292758E2,3.24069E0,2.3874525E1,3.5073667E3,1.0357226E2,1.6965004E1,4.5523543E0,4.9258688E2,3.0252638E0,2.8350784E1,6.9810185E0,1.2156476E2,1.5237466E2,3.2556472E3,6.141343E0,2.7151877E2,3.666487E2],"tree_param":{"num_deleted":"0","num_feature":"36","num_nodes":"95","size_leaf_vector":"1"}},{"base_weights":[-5.6667402E-3,3.443953E-1,-9.435014E-1,5.482706E-1,-9.211839E-1,-1.1229409E0,-1.840181E-1,3.1412503E-1,1.1922828E0,-2.4198642E-1,-1.057004E0,-1.1519251E0,-9.4986385E-1,1.5840983E-1,-1.1625199E0,5.591102E-1,-1.0820456E0,1.1956757E0,-1.8863727E0,-1.0508554E0,9.089076E-1,-1.1231469E0,-8.563901E-1,-1.1535234E0,3.8819365E-2,7.903541E-1,-1.0420085E0,2.2185214E-1,-1.161487E-1,-1.1651995E0,2.3458117E-1,7.919456E-1,-2.1431948E-1,-1.2060207E0,1.615201E0,1.1979218E0,-1.2533209E-1,-2.0021431E-1,4.2597376E-4,-1.3560786E0,7.1150404E-1,-1.7349046E-1,1.0307608E0,-9.3591815E-1,-1.1528618E0,4.8376876E-1,-1.1046575E0,-1.1560212E0,-8.4528923E-1,1.6929588E-1,-1.09519E-1,-1.3286458E-1,1.5099088E0,-1.1248239E0,1.636222E-1,-1.1351927E-1,2.4005854E-1,-1.1715274E-1,-9.0051955E-1,1.2976213E-1,-7.371896E-2,2.7709154E-2,1.22212365E-1,-1.2881216E-1,1.9870026E-2,-1.22376025E-1,1.4733848E-1,1.8206224E-1,-1.3261542E-1,1.2095346E-1,8.219974E-2,-1.4035188E-1,1.0859104E-1,-1.0987822E-1,1.6184051E-1,1.1876833E-1,-1.21687524E-1,-1.0396925E-1,2.902065E-1,-1.1582594E-1,2.815621E-1,2.6503038E-1,-1.2878452E-1,-1.1640334E-1,1.1105938E-1,-1.1545862E-1,-1.22776166E-1,-1.1558403E-1,1.487913E-1,1.5829577E-1,-2.6111498E-2,-1.1303705E-1,1.232481E-1,5.8978863E-2,-1.2385968E-1,-9.547442E-2,2.588941E-2,9.7874954E-2,-1.1342873E-1],"categories":[],"categories_nodes":[],"categories_segments":[],"categories_sizes":[],"default_left":[0,0,0,0,0,0,0,0,0,0,0,0,0,0,0,0,0,0,0,0,0,0,0,0,0,0,0,0,0,0,0,0,0,0,0,0,0,0,0,0,0,0,0,0,0,0,0,0,0,0,0,0,0,0,0,0,0,0,0,0,0,0,0,0,0,0,0,0,0,0,0,0,0,0,0,0,0,0,0,0,0,0,0,0,0,0,0,0,0,0,0,0,0,0,0,0,0,0,0],"id":12,"left_children":[1,3,5,7,9,11,13,15,17,19,21,23,25,27,29,31,33,35,37,39,41,43,45,47,49,51,53,55,-1,57,59,61,63,65,67,69,-1,-1,-1,71,73,-1,75,77,79,81,83,85,87,-1,-1,-1,89,91,93,-1,95,-1,97,-1,-1,-1,-1,-1,-1,-1,-1,-1,-1,-1,-1,-1,-1,-1,-1,-1,-1,-1,-1,-1,-1,-1,-1,-1,-1,-1,-1,-1,-1,-1,-1,-1,-1,-1,-1,-1,-1,-1,-1],"loss_changes":[3.4796316E4,1.9914625E4,3.9259023E3,1.0023246E4,9.875947E2,1.15802734E2,1.845367E3,1.6675248E4,1.8739062E2,1.663437E3,1.1744824E2,3.802539E1,5.377346E2,3.419247E2,5.618042E0,7.4688477E3,2.4355166E3,9.8884766E1,4.3640823E0,5.65355E2,2.3941846E2,3.6239258E1,7.3812317E2,1.4365234E1,5.384826E1,2.596064E2,3.1772876E2,9.6479706E1,0E0,1.3319092E0,4.6397867E0,7.059867E3,4.256643E3,3.3254297E2,1.9590479E2,7.622656E1,0E0,0E0,0E0,1.0517041E2,2.5714502E2,0E0,2.5036633E2,3.7106885E2,1.2717334E2,1.3360033E3,2.4734741E2,6.171875E-1,1.2048882E2,0E0,0E0,0E0,1.6790253E1,4.030591E1,1.2340952E2,0E0,8.67377E1,0E0,1.762753E1,0E0,0E0,0E0,0E0,0E0,0E0,0E0,0E0,0E0,0E0,0E0,0E0,0E0,0E0,0E0,0E0,0E0,0E0,0E0,0E0,0E0,0E0,0E0,0E0,0E0,0E0,0E0,0E0,0E0,0E0,0E0,0E0,0E0,0E0,0E0,0E0,0E0,0E0,0E0,0E0],"parents":[2147483647,0,0,1,1,2,2,3,3,4,4,5,5,6,6,7,7,8,8,9,9,10,10,11,11,12,12,13,13,14,14,15,15,16,16,17,17,18,18,19,19,20,20,21,21,22,22,23,23,24,24,25,25,26,26,27,27,29,29,30,30,31,31,32,32,33,33,34,34,35,35,39,39,40,40,42,42,43,43,44,44,45,45,46,46,47,47,48,48,52,52,53,53,54,54,56,56,58,58],"right_children":[2,4,6,8,10,12,14,16,18,20,22,24,26,28,30,32,34,36,38,40,42,44,46,48,50,52,54,56,-1,58,60,62,64,66,68,70,-1,-1,-1,72,74,-1,76,78,80,82,84,86,88,-1,-1,-1,90,92,94,-1,96,-1,98,-1,-1,-1,-1,-1,-1,-1,-1,-1,-1,-1,-1,-1,-1,-1,-1,-1,-1,-1,-1,-1,-1,-1,-1,-1,-1,-1,-1,-1,-1,-1,-1,-1,-1,-1,-1,-1,-1,-1,-1],"split_conditions":[7.287287E-1,8.623624E-1,6.713986E-1,7.747748E-1,8.763764E-1,3.4734735E-1,5.605606E-1,4.83984E-1,9.434434E-1,8.728729E-1,9.73974E-1,9.9806195E-1,3.4798592E-1,4.944945E-1,1E0,4.3543544E-1,9.895423E-1,9.0405667E-1,8.032067E-1,9.5181775E-1,4.944945E-1,8.958555E-1,9.77978E-1,8.9797384E-1,8.813902E-1,8.893894E-1,8.278278E-1,3.292074E-1,-1.161487E-1,9.8349905E-1,9.941147E-1,2.3573573E-1,4.124124E-1,9.9071085E-1,5.605606E-1,9.149149E-1,-1.2533209E-1,-2.0021431E-1,4.2597376E-4,8.096027E-1,5.1822025E-1,-1.7349046E-1,6.999903E-1,9.844176E-1,1E0,9.3832165E-1,5.900901E-1,8.893894E-1,1E0,1.6929588E-1,-1.09519E-1,-1.3286458E-1,3.793794E-1,9.8999E-1,4.944945E-1,-1.1351927E-1,3.838839E-1,-1.1715274E-1,9.8447245E-1,1.2976213E-1,-7.371896E-2,2.7709154E-2,1.22212365E-1,-1.2881216E-1,1.9870026E-2,-1.22376025E-1,1.4733848E-1,1.8206224E-1,-1.3261542E-1,1.2095346E-1,8.219974E-2,-1.4035188E-1,1.0859104E-1,-1.0987822E-1,1.6184051E-1,1.1876833E-1,-1.21687524E-1,-1.0396925E-1,2.902065E-1,-1.1582594E-1,2.815621E-1,2.6503038E-1,-1.2878452E-1,-1.1640334E-1,1.1105938E-1,-1.1545862E-1,-1.22776166E-1,-1.1558403E-1,1.487913E-1,1.5829577E-1,-2.6111498E-2,-1.1303705E-1,1.232481E-1,5.8978863E-2,-1.2385968E-1,-9.547442E-2,2.588941E-2,9.7874954E-2,-1.1342873E-1],"split_indices":[18,30,6,30,30,29,2,0,15,30,30,1,29,29,27,15,10,5,19,13,29,30,30,8,27,30,31,29,0,34,0,19,0,8,2,0,0,0,0,19,17,0,19,15,26,8,18,30,21,0,0,0,4,2,29,0,27,0,34,0,0,0,0,0,0,0,0,0,0,0,0,0,0,0,0,0,0,0,0,0,0,0,0,0,0,0,0,0,0,0,0,0,0,0,0,0,0,0,0],"split_type":[0,0,0,0,0,0,0,0,0,0,0,0,0,0,0,0,0,0,0,0,0,0,0,0,0,0,0,0,0,0,0,0,0,0,0,0,0,0,0,0,0,0,0,0,0,0,0,0,0,0,0,0,0,0,0,0,0,0,0,0,0,0,0,0,0,0,0,0,0,0,0,0,0,0,0,0,0,0,0,0,0,0,0,0,0,0,0,0,0,0,0,0,0,0,0,0,0,0,0],"sum_hessian":[1.059873E5,7.7179445E4,2.8807852E4,6.647189E4,1.0707553E4,2.3301934E4,5.505917E3,4.8749406E4,1.7722484E4,1.7848438E3,8.922709E3,1.9954602E4,3.3473323E3,4.0792253E3,1.4266918E3,4.14728E4,7.276606E3,1.7703586E4,1.8899372E1,1.0482217E3,7.366221E2,6.706848E3,2.215861E3,1.9927883E4,2.6718246E1,1.6794742E2,3.1793848E3,3.8929387E3,1.8628653E2,1.4241263E3,2.5654242E0,3.1876566E4,9.596232E3,6.957373E3,3.192329E2,1.7687875E4,1.571112E1,1.7753292E1,1.1460812E0,8.936763E2,1.5454538E2,3.1871801E1,7.047503E2,9.2309265E2,5.7837554E3,3.4618567E2,1.8696753E3,1.9764969E4,1.6291466E2,1.0666501E1,1.6051744E1,4.2358974E1,1.2558845E2,2.9750913E3,2.0429349E2,5.072486E1,3.8422139E3,1.3875282E3,3.6598183E1,1.0650393E0,1.5003849E0,1.4510941E4,1.7365625E4,2.6651199E3,6.931113E3,6.9121533E3,4.5219906E1,2.9874954E2,2.0483341E1,1.7155693E4,5.321821E2,8.7706305E2,1.6613253E1,5.151117E1,1.0303421E2,6.5919885E2,4.5551453E1,8.9950037E2,2.359229E1,5.7766064E3,7.1487494E0,1.5551181E2,1.9067387E2,1.8213323E3,4.834307E1,1.9394135E4,3.7083435E2,1.4422307E2,1.8691591E1,1.2071552E2,4.872921E0,2.9686267E3,6.4645243E0,1.5712039E2,4.7173088E1,5.8859573E1,3.7833542E3,3.696335E0,3.2901848E1],"tree_param":{"num_deleted":"0","num_feature":"36","num_nodes":"99","size_leaf_vector":"1"}},{"base_weights":[-5.816332E-3,3.288901E-1,-9.181741E-1,5.2207536E-1,-8.994764E-1,-1.1044309E0,-1.720429E-1,2.9606456E-1,1.1663388E0,-2.3132905E-1,-1.036138E0,-1.134481E0,-9.2669606E-1,1.4375803E-1,-1.1429592E0,5.242605E-1,-1.0558281E0,1.1697569E0,-1.717191E0,-1.0011244E0,8.7530535E-1,-1.1027242E0,-8.3562595E-1,-1.1361009E0,3.71833E-2,7.3138726E-1,-1.0190032E0,2.0102444E-1,-1.14282005E-1,-1.1458223E0,2.2354624E-1,7.787034E-1,-1.2718782E-1,-1.1792036E0,1.4981714E0,1.1719505E0,-1.2400921E-1,-3.3785686E-1,-1.8813488E-1,-1.3080771E0,6.1295235E-1,-1.9042841E0,9.8185575E-1,-9.0601176E-1,-1.1344771E0,4.422479E-1,-1.0870016E0,-1.1386282E0,-8.262519E-1,1.569147E-1,-1.0740298E-1,-1.2830882E-1,1.3827378E0,-1.1043193E0,1.4911401E-1,-1.11672536E-1,2.1740659E-1,-1.15255676E-1,-8.695031E-1,1.3588884E-1,-7.4316315E-2,9.581748E-2,-1.774222E-2,-1.2997065E-1,1.3560896E-2,-1.1967229E-1,1.4111511E-1,1.6851255E-1,-1.282054E-1,1.1849423E-1,7.694081E-2,-8.215877E-2,3.3374276E-2,-1.354895E-1,1.0146817E-1,1.5194607E-1,-1.069194E-1,-2.2392209E-1,-1.3055655E-1,-1.6111766E-1,1.1095996E-1,-1.01352416E-1,2.1512394E-1,-1.1401647E-1,2.2336312E-1,2.3245347E-1,-1.240406E-1,-1.1458333E-1,1.08002655E-1,-1.14031136E-1,-1.0684055E-1,-1.1377364E-1,1.3842128E-1,1.4287607E-1,-9.8474525E-2,-1.110238E-1,1.04393795E-1,5.3410005E-2,-1.20828465E-1,-9.239339E-2,2.343206E-2,8.538069E-2,-1.11399926E-1],"categories":[],"categories_nodes":[],"categories_segments":[],"categories_sizes":[],"default_left":[0,0,0,0,0,0,0,0,0,0,0,0,0,0,0,0,0,0,0,0,0,0,0,0,0,0,0,0,0,0,0,0,0,0,0,0,0,0,0,0,0,0,0,0,0,0,0,0,0,0,0,0,0,0,0,0,0,0,0,0,0,0,0,0,0,0,0,0,0,0,0,0,0,0,0,0,0,0,0,0,0,0,0,0,0,0,0,0,0,0,0,0,0,0,0,0,0,0,0,0,0,0,0],"id":13,"left_children":[1,3,5,7,9,11,13,15,17,19,21,23,25,27,29,31,33,35,37,39,41,43,45,47,49,51,53,55,-1,57,59,61,63,65,67,69,-1,71,-1,73,75,77,79,81,83,85,87,89,91,-1,-1,-1,93,95,97,-1,99,-1,101,-1,-1,-1,-1,-1,-1,-1,-1,-1,-1,-1,-1,-1,-1,-1,-1,-1,-1,-1,-1,-1,-1,-1,-1,-1,-1,-1,-1,-1,-1,-1,-1,-1,-1,-1,-1,-1,-1,-1,-1,-1,-1,-1,-1],"loss_changes":[3.0459162E4,1.7317248E4,3.7202227E3,9.181449E3,9.053076E2,1.13365234E2,1.6402662E3,1.4401956E4,1.6340625E2,1.4365568E3,1.09E2,3.48125E1,4.7577075E2,2.976742E2,5.3927E0,6.620633E3,2.126246E3,8.791797E1,3.84618E0,4.9346436E2,2.067934E2,3.7557617E1,6.61103E2,1.3386719E1,4.639081E1,2.1729745E2,2.9320435E2,8.369855E1,0E0,1.4364014E0,4.9410505E0,4.9289453E3,3.45726E3,2.93583E2,1.6387628E2,8.455469E1,0E0,1.3540862E0,0E0,9.22666E1,2.4494814E2,2.26725E0,2.2273926E2,2.8601416E2,1.0436084E2,1.075834E3,2.2036694E2,9.277344E-1,1.0600124E2,0E0,0E0,0E0,1.4983505E1,3.6002197E1,1.05695915E2,0E0,7.3946396E1,0E0,1.5802687E1,0E0,0E0,0E0,0E0,0E0,0E0,0E0,0E0,0E0,0E0,0E0,0E0,0E0,0E0,0E0,0E0,0E0,0E0,0E0,0E0,0E0,0E0,0E0,0E0,0E0,0E0,0E0,0E0,0E0,0E0,0E0,0E0,0E0,0E0,0E0,0E0,0E0,0E0,0E0,0E0,0E0,0E0,0E0,0E0],"parents":[2147483647,0,0,1,1,2,2,3,3,4,4,5,5,6,6,7,7,8,8,9,9,10,10,11,11,12,12,13,13,14,14,15,15,16,16,17,17,18,18,19,19,20,20,21,21,22,22,23,23,24,24,25,25,26,26,27,27,29,29,30,30,31,31,32,32,33,33,34,34,35,35,37,37,39,39,40,40,41,41,42,42,43,43,44,44,45,45,46,46,47,47,48,48,52,52,53,53,54,54,56,56,58,58],"right_children":[2,4,6,8,10,12,14,16,18,20,22,24,26,28,30,32,34,36,38,40,42,44,46,48,50,52,54,56,-1,58,60,62,64,66,68,70,-1,72,-1,74,76,78,80,82,84,86,88,90,92,-1,-1,-1,94,96,98,-1,100,-1,102,-1,-1,-1,-1,-1,-1,-1,-1,-1,-1,-1,-1,-1,-1,-1,-1,-1,-1,-1,-1,-1,-1,-1,-1,-1,-1,-1,-1,-1,-1,-1,-1,-1,-1,-1,-1,-1,-1,-1,-1,-1,-1,-1,-1],"split_conditions":[7.287287E-1,8.623624E-1,6.713986E-1,7.747748E-1,8.763764E-1,3.4734735E-1,5.605606E-1,4.83984E-1,9.434434E-1,8.728729E-1,9.73974E-1,9.9806195E-1,3.4798592E-1,4.944945E-1,1E0,7.257257E-1,9.895423E-1,9.0784216E-1,4.6796796E-1,9.5004314E-1,4.3831575E-1,8.958555E-1,9.77978E-1,8.9797384E-1,8.813902E-1,8.893894E-1,8.278278E-1,3.292074E-1,-1.14282005E-1,9.8349905E-1,7.827065E-1,4.3543544E-1,5.323447E-1,9.9071085E-1,5.605606E-1,9.149149E-1,-1.2400921E-1,8.8010746E-1,-1.8813488E-1,8.0674714E-1,5.405405E-1,9.469469E-1,4.944945E-1,9.844176E-1,1E0,9.35382E-1,5.900901E-1,1E0,1E0,1.569147E-1,-1.0740298E-1,-1.2830882E-1,4.894895E-1,7.160635E-1,4.944945E-1,-1.11672536E-1,3.838839E-1,-1.15255676E-1,9.8447245E-1,1.3588884E-1,-7.4316315E-2,9.581748E-2,-1.774222E-2,-1.2997065E-1,1.3560896E-2,-1.1967229E-1,1.4111511E-1,1.6851255E-1,-1.282054E-1,1.1849423E-1,7.694081E-2,-8.215877E-2,3.3374276E-2,-1.354895E-1,1.0146817E-1,1.5194607E-1,-1.069194E-1,-2.2392209E-1,-1.3055655E-1,-1.6111766E-1,1.1095996E-1,-1.01352416E-1,2.1512394E-1,-1.1401647E-1,2.2336312E-1,2.3245347E-1,-1.240406E-1,-1.1458333E-1,1.08002655E-1,-1.14031136E-1,-1.0684055E-1,-1.1377364E-1,1.3842128E-1,1.4287607E-1,-9.8474525E-2,-1.110238E-1,1.04393795E-1,5.3410005E-2,-1.20828465E-1,-9.239339E-2,2.343206E-2,8.538069E-2,-1.11399926E-1],"split_indices":[18,30,6,30,30,29,2,0,15,30,30,1,29,29,27,8,10,5,8,13,17,30,30,8,27,30,31,29,0,34,19,15,6,8,2,0,0,6,0,19,28,31,29,15,26,8,18,21,21,0,0,0,9,28,29,0,27,0,34,0,0,0,0,0,0,0,0,0,0,0,0,0,0,0,0,0,0,0,0,0,0,0,0,0,0,0,0,0,0,0,0,0,0,0,0,0,0,0,0,0,0,0,0],"split_type":[0,0,0,0,0,0,0,0,0,0,0,0,0,0,0,0,0,0,0,0,0,0,0,0,0,0,0,0,0,0,0,0,0,0,0,0,0,0,0,0,0,0,0,0,0,0,0,0,0,0,0,0,0,0,0,0,0,0,0,0,0,0,0,0,0,0,0,0,0,0,0,0,0,0,0,0,0,0,0,0,0,0,0,0,0,0,0,0,0,0,0,0,0,0,0,0,0,0,0,0,0,0,0],"sum_hessian":[9.974245E4,7.29725E4,2.6769959E4,6.305622E4,9.916279E3,2.1421922E4,5.348037E3,4.668156E4,1.637466E4,1.6843043E3,8.231976E3,1.8319254E4,3.1026677E3,4.0361033E3,1.3119338E3,3.9940344E4,6.7412144E3,1.6355867E4,1.879351E1,9.9338367E2,6.909207E2,6.1764116E3,2.0555635E3,1.8293994E4,2.5261236E1,1.6325458E2,2.939413E3,3.8649172E3,1.7118617E2,1.309352E3,2.5817864E0,2.872193E4,1.1218413E4,6.4310874E3,3.1012698E2,1.6341506E4,1.4360796E1,2.3240252E0,1.6469486E1,8.3481464E2,1.58569E2,2.4884499E1,6.660362E2,8.625238E2,5.3138877E3,3.377655E2,1.7177981E3,1.8143326E4,1.5066673E2,1.0446779E1,1.4814456E1,3.965158E1,1.2360299E2,2.73939E3,2.0002313E2,4.663353E1,3.8182837E3,1.2751039E3,3.4248123E1,1.0007643E0,1.5810221E0,2.4182672E4,4.5392573E3,2.053295E3,9.165118E3,6.388419E3,4.266847E1,2.9095578E2,1.9171194E1,1.5828702E4,5.128041E2,1.2211455E0,1.1028796E0,8.1872894E2,1.6085701E1,1.0310334E2,5.5465656E1,1.4200434E1,1.0684065E1,3.0726E1,6.3531024E2,8.3386816E2,2.865563E1,5.30559E3,8.297888E0,1.5924545E2,1.7852005E2,1.6728538E3,4.494432E1,1.7703742E4,4.3958453E2,1.3248334E2,1.81834E1,1.21634964E2,1.9680247E0,2.7323452E3,7.0446286E0,1.5629984E2,4.3723305E1,5.497536E1,3.7633083E3,3.9456246E0,3.0302496E1],"tree_param":{"num_deleted":"0","num_feature":"36","num_nodes":"103","size_leaf_vector":"1"}},{"base_weights":[-6.0141613E-3,3.135027E-1,-8.940215E-1,4.7754362E-1,-1.0172433E0,-1.091848E0,-1.746118E-1,3.0161658E-1,1.1466496E0,-1.084278E0,-8.167583E-1,-1.1191003E0,-9.2753243E-1,1.23389885E-1,-1.1256688E0,9.194385E-1,1.0019577E-3,1.16376E0,-1.1291065E-1,-8.775837E-1,-1.1182363E0,4.071243E-1,-1.071413E0,-1.1207472E0,3.5911463E-2,6.9280183E-1,-1.0245783E0,1.791533E-1,-1.128727E-1,-1.1285509E0,2.1609566E-1,-8.391935E-1,1.1291553E0,6.1448926E-1,-4.6641523E-1,5.974916E-1,1.1707579E0,-9.899037E-1,1.8243617E0,-1.1242038E0,1.855811E0,2.0512474E0,-1.2154727E0,-1.12984635E-1,1.0506802E0,-1.1233277E0,-7.743638E-1,1.4699003E-1,-1.0544566E-1,-1.2435231E-1,1.2854614E0,-1.0848197E0,-1.2948428E-2,-9.6954614E-1,2.0225775E-1,-1.1352976E-1,-8.4010243E-1,1.3063185E-1,-7.362966E-2,-1.2683094E-1,8.791398E-2,1.1578228E-1,-6.790739E-2,-5.8930654E-2,8.728414E-2,-1.04382314E-1,2.4705006E-2,1.1778531E-1,-1.8261567E-2,1.17193915E-1,-1.0527374E-1,-1.1184235E-1,-7.500409E-2,4.2027694E-1,-1.15837805E-1,-1.12481944E-1,8.255551E-2,-1.00650184E-1,2.838755E-1,2.4831255E-1,4.8229933E-2,-1.2213337E-1,-3.0900983E-2,-6.9493316E-2,1.1256998E-1,-1.1252028E-1,-1.0460277E-1,-1.1196106E-1,1.2968959E-1,1.3287976E-1,-9.429497E-2,-1.09100856E-1,1.0070866E-1,4.306076E-2,-1.15158774E-1,-1.0712613E-1,2.8681895E-1,-1.0994728E-1,2.1704579E-2,7.5011656E-2,-1.0956364E-1],"categories":[],"categories_nodes":[],"categories_segments":[],"categories_sizes":[],"default_left":[0,0,0,0,0,0,0,0,0,0,0,0,0,0,0,0,0,0,0,0,0,0,0,0,0,0,0,0,0,0,0,0,0,0,0,0,0,0,0,0,0,0,0,0,0,0,0,0,0,0,0,0,0,0,0,0,0,0,0,0,0,0,0,0,0,0,0,0,0,0,0,0,0,0,0,0,0,0,0,0,0,0,0,0,0,0,0,0,0,0,0,0,0,0,0,0,0,0,0,0,0],"id":14,"left_children":[1,3,5,7,9,11,13,15,17,19,21,23,25,27,29,31,33,35,-1,37,39,41,43,45,47,49,51,53,-1,55,57,59,61,63,65,67,69,71,73,75,77,79,81,-1,83,85,87,-1,-1,-1,89,91,93,95,97,-1,99,-1,-1,-1,-1,-1,-1,-1,-1,-1,-1,-1,-1,-1,-1,-1,-1,-1,-1,-1,-1,-1,-1,-1,-1,-1,-1,-1,-1,-1,-1,-1,-1,-1,-1,-1,-1,-1,-1,-1,-1,-1,-1,-1,-1],"loss_changes":[2.6663205E4,1.5086346E4,3.5386484E3,7.2418623E3,1.0104248E2,8.629297E1,1.5204231E3,9.04795E3,5.0005664E2,3.88916E1,5.9401E2,3.1847656E1,4.3789746E2,2.8544406E2,5.1932373E0,5.881875E3,9.397833E3,4.9677734E1,0E0,2.4649078E2,8.8614746E1,8.7950616E2,1.9670679E2,1.4056641E1,4.0294247E1,1.8257687E2,1.5987085E2,1.0401916E2,0E0,1.5319824E0,4.6816792E0,1.2542485E3,7.3931836E2,4.40809E3,7.663123E3,7.140152E1,3.421289E1,2.3043701E1,2.3564328E2,6.769043E0,3.138726E1,1.09698975E2,5.049591E-1,0E0,6.3834915E0,1.2246094E0,9.2059814E1,0E0,0E0,0E0,1.2961044E1,3.3156006E1,7.5476295E1,3.324875E1,7.407466E1,0E0,1.4247147E1,0E0,0E0,0E0,0E0,0E0,0E0,0E0,0E0,0E0,0E0,0E0,0E0,0E0,0E0,0E0,0E0,0E0,0E0,0E0,0E0,0E0,0E0,0E0,0E0,0E0,0E0,0E0,0E0,0E0,0E0,0E0,0E0,0E0,0E0,0E0,0E0,0E0,0E0,0E0,0E0,0E0,0E0,0E0,0E0],"parents":[2147483647,0,0,1,1,2,2,3,3,4,4,5,5,6,6,7,7,8,8,9,9,10,10,11,11,12,12,13,13,14,14,15,15,16,16,17,17,19,19,20,20,21,21,22,22,23,23,24,24,25,25,26,26,27,27,29,29,30,30,31,31,32,32,33,33,34,34,35,35,36,36,37,37,38,38,39,39,40,40,41,41,42,42,44,44,45,45,46,46,50,50,51,51,52,52,53,53,54,54,56,56],"right_children":[2,4,6,8,10,12,14,16,18,20,22,24,26,28,30,32,34,36,-1,38,40,42,44,46,48,50,52,54,-1,56,58,60,62,64,66,68,70,72,74,76,78,80,82,-1,84,86,88,-1,-1,-1,90,92,94,96,98,-1,100,-1,-1,-1,-1,-1,-1,-1,-1,-1,-1,-1,-1,-1,-1,-1,-1,-1,-1,-1,-1,-1,-1,-1,-1,-1,-1,-1,-1,-1,-1,-1,-1,-1,-1,-1,-1,-1,-1,-1,-1,-1,-1,-1,-1],"split_conditions":[7.287287E-1,8.763764E-1,6.505249E-1,8.509229E-1,9.73974E-1,3.4734735E-1,5.605606E-1,3.083083E-1,9.638643E-1,8.958555E-1,9.77978E-1,9.9806195E-1,3.4798592E-1,4.944945E-1,1E0,5.6282884E-1,5.689439E-1,8.1986624E-1,-1.1291065E-1,9.82983E-1,1E0,9.3832165E-1,5.900901E-1,8.9797384E-1,8.813902E-1,8.893894E-1,8.278278E-1,3.838839E-1,-1.128727E-1,9.8349905E-1,8.5569876E-1,8.728729E-1,4.3643644E-1,3.2932934E-1,6.411411E-1,9.331034E-1,9.70971E-1,6.1728126E-1,7.3112977E-1,9.5191056E-1,6.722536E-1,4.894895E-1,7.520401E-1,-1.12984635E-1,3.6136135E-1,1E0,1E0,1.4699003E-1,-1.0544566E-1,-1.2435231E-1,4.894895E-1,9.8999E-1,4.079079E-1,7.3927736E-1,3.292074E-1,-1.1352976E-1,9.8447245E-1,1.3063185E-1,-7.362966E-2,-1.2683094E-1,8.791398E-2,1.1578228E-1,-6.790739E-2,-5.8930654E-2,8.728414E-2,-1.04382314E-1,2.4705006E-2,1.1778531E-1,-1.8261567E-2,1.17193915E-1,-1.0527374E-1,-1.1184235E-1,-7.500409E-2,4.2027694E-1,-1.15837805E-1,-1.12481944E-1,8.255551E-2,-1.00650184E-1,2.838755E-1,2.4831255E-1,4.8229933E-2,-1.2213337E-1,-3.0900983E-2,-6.9493316E-2,1.1256998E-1,-1.1252028E-1,-1.0460277E-1,-1.1196106E-1,1.2968959E-1,1.3287976E-1,-9.429497E-2,-1.09100856E-1,1.0070866E-1,4.306076E-2,-1.15158774E-1,-1.0712613E-1,2.8681895E-1,-1.0994728E-1,2.1704579E-2,7.5011656E-2,-1.0956364E-1],"split_indices":[18,30,6,35,30,29,2,6,0,30,30,1,29,29,27,3,29,6,0,31,26,8,18,8,27,30,31,27,0,34,10,30,28,29,30,34,29,16,28,19,3,9,6,0,0,21,21,0,0,0,9,2,0,35,29,0,34,0,0,0,0,0,0,0,0,0,0,0,0,0,0,0,0,0,0,0,0,0,0,0,0,0,0,0,0,0,0,0,0,0,0,0,0,0,0,0,0,0,0,0,0],"split_type":[0,0,0,0,0,0,0,0,0,0,0,0,0,0,0,0,0,0,0,0,0,0,0,0,0,0,0,0,0,0,0,0,0,0,0,0,0,0,0,0,0,0,0,0,0,0,0,0,0,0,0,0,0,0,0,0,0,0,0,0,0,0,0,0,0,0,0,0,0,0,0,0,0,0,0,0,0,0,0,0,0,0,0,0,0,0,0,0,0,0,0,0,0,0,0,0,0,0,0,0,0],"sum_hessian":[9.397077E4,6.910612E4,2.4864654E4,6.1522844E4,7.5832725E3,1.9501521E4,5.363133E3,4.8715582E4,1.2807264E4,5.6797637E3,1.9035093E3,1.6722258E4,2.7792642E3,4.084254E3,1.2788792E3,1.5944484E4,3.2771098E4,1.2712175E4,9.508876E1,8.052567E2,4.874507E3,3.2774643E2,1.5757628E3,1.6698479E4,2.3779293E1,1.5670415E2,2.62256E3,3.910936E3,1.7331783E2,1.2762966E3,2.5825589E0,1.6984775E3,1.4246007E4,1.4171119E4,1.8599977E4,1.562332E2,1.2555942E4,7.737265E2,3.1530214E1,4.865366E3,9.140439E0,1.6266216E2,1.6508427E2,1.533991E3,4.1771854E1,1.6572771E4,1.25707245E2,1.0120855E1,1.3658438E1,3.6465767E1,1.2023838E2,2.4750986E3,1.4746127E2,7.630423E1,3.8346318E3,1.2442582E3,3.2038345E1,1.0308762E0,1.5516827E0,1.3592874E3,3.391901E2,1.402403E4,2.2197711E2,2.5037195E3,1.1667399E4,1.0279947E4,8.32003E3,8.929343E1,6.693977E1,1.2549748E4,6.193878E0,5.0140704E2,2.7231946E2,1.7314651E1,1.4215564E1,4.864254E3,1.1125385E0,2.3303986E0,6.810041E0,1.2709464E2,3.5567513E1,1.636786E2,1.4056666E0,1.3807267E0,4.039113E1,1.6167038E4,4.0573373E2,1.0814124E2,1.7566006E1,1.183407E2,1.89768E0,2.4682747E3,6.8239207E0,1.0656916E2,4.089211E1,7.503633E1,1.267898E0,4.224928E1,3.7923826E3,4.167569E0,2.7870777E1],"tree_param":{"num_deleted":"0","num_feature":"36","num_nodes":"101","size_leaf_vector":"1"}},{"base_weights":[-5.9185326E-3,2.9949176E-1,-8.70742E-1,4.7386616E-1,-8.6210704E-1,-1.0771612E0,-1.6305058E-1,2.570639E-1,1.1293745E0,-2.4357593E-1,-9.998337E-1,-1.105489E0,-9.079206E-1,1.1191431E-1,-1.1102577E0,4.585779E-1,-1.0070304E0,1.1330898E0,-1.6045159E0,-9.6085125E-1,8.075098E-1,-1.0676091E0,-7.9872245E-1,-1.1071552E0,3.4904756E-2,6.498239E-1,-1.0050025E0,1.6232201E-1,-1.1139883E-1,-1.1133416E0,2.0847622E-1,6.7758816E-1,-2.0420176E-1,-1.1430175E0,1.4765925E0,1.1486344E0,6.9336116E-1,-1.70602E-1,2.0546641E-4,-1.2613691E0,5.4764885E-1,-1.5619378E-1,9.300323E-1,-8.511641E-1,-1.1038393E0,3.723175E-1,-1.0578772E0,-1.1097664E0,-7.5896156E-1,1.3884379E-1,-1.03617445E-1,-1.20961726E-1,1.1969986E0,-1.0675565E0,-1.3655058E-2,-9.4403195E-1,1.8306367E-1,-1.120546E-1,-8.1198496E-1,-7.22227E-2,1.232651E-1,1.9462455E-2,1.1465076E-1,-1.3517766E-1,9.254322E-3,-1.1601242E-1,1.3215996E-1,1.6428015E-1,-1.235415E-1,1.15084246E-1,-1.1655531E-1,-7.665699E-2,1.1694598E-1,-1.3057487E-1,1.0082269E-1,-1.6791148E-1,1.1649748E-1,1.0970336E-1,-1.095014E-1,-9.6564285E-2,1.4856802E-1,-1.1100606E-1,1.5904184E-1,1.803676E-1,-1.1861106E-1,-1.11575045E-1,1.0308712E-1,-1.1118733E-1,-1.0238371E-1,-1.10527866E-1,1.2216834E-1,1.3596568E-1,4.7180876E-2,-1.07416786E-1,8.656249E-2,3.905767E-2,-1.1303039E-1,-1.05170585E-1,2.411518E-1,-1.0844453E-1,1.9636061E-2,8.4496215E-2,-1.0557189E-1],"categories":[],"categories_nodes":[],"categories_segments":[],"categories_sizes":[],"default_left":[0,0,0,0,0,0,0,0,0,0,0,0,0,0,0,0,0,0,0,0,0,0,0,0,0,0,0,0,0,0,0,0,0,0,0,0,0,0,0,0,0,0,0,0,0,0,0,0,0,0,0,0,0,0,0,0,0,0,0,0,0,0,0,0,0,0,0,0,0,0,0,0,0,0,0,0,0,0,0,0,0,0,0,0,0,0,0,0,0,0,0,0,0,0,0,0,0,0,0,0,0,0,0],"id":15,"left_children":[1,3,5,7,9,11,13,15,17,19,21,23,25,27,29,31,33,35,37,39,41,43,45,47,49,51,53,55,-1,57,59,61,63,65,67,69,71,-1,-1,73,75,-1,77,79,81,83,85,87,89,-1,-1,-1,91,93,95,97,99,-1,101,-1,-1,-1,-1,-1,-1,-1,-1,-1,-1,-1,-1,-1,-1,-1,-1,-1,-1,-1,-1,-1,-1,-1,-1,-1,-1,-1,-1,-1,-1,-1,-1,-1,-1,-1,-1,-1,-1,-1,-1,-1,-1,-1,-1],"loss_changes":[2.3369307E4,1.3244694E4,3.373004E3,8.0794053E3,7.2681934E2,8.470117E1,1.3584915E3,1.0883693E4,1.4533789E2,1.1736034E3,9.429004E1,2.9128906E1,3.8912866E2,2.5001863E2,5.0042725E0,5.349187E3,1.9858062E3,9.56582E1,3.1980896E0,4.2007043E2,1.8479465E2,3.997754E1,5.35546E2,1.3056641E1,3.5224342E1,1.5539455E2,1.4996265E2,8.930614E1,0E0,1.6322021E0,4.302715E0,6.2726016E3,3.1171692E3,2.3638184E2,1.3969061E2,7.097656E1,3.3754083E2,0E0,0E0,7.9048096E1,2.1417004E2,0E0,2.0448901E2,2.0274896E2,7.662695E1,7.165529E2,1.7571802E2,1.6054688E0,8.1567345E1,0E0,0E0,0E0,1.3207809E1,3.0005615E1,6.5694374E1,2.842102E1,6.4486694E1,0E0,1.3399454E1,0E0,0E0,0E0,0E0,0E0,0E0,0E0,0E0,0E0,0E0,0E0,0E0,0E0,0E0,0E0,0E0,0E0,0E0,0E0,0E0,0E0,0E0,0E0,0E0,0E0,0E0,0E0,0E0,0E0,0E0,0E0,0E0,0E0,0E0,0E0,0E0,0E0,0E0,0E0,0E0,0E0,0E0,0E0,0E0],"parents":[2147483647,0,0,1,1,2,2,3,3,4,4,5,5,6,6,7,7,8,8,9,9,10,10,11,11,12,12,13,13,14,14,15,15,16,16,17,17,18,18,19,19,20,20,21,21,22,22,23,23,24,24,25,25,26,26,27,27,29,29,30,30,31,31,32,32,33,33,34,34,35,35,36,36,39,39,40,40,42,42,43,43,44,44,45,45,46,46,47,47,48,48,52,52,53,53,54,54,55,55,56,56,58,58],"right_children":[2,4,6,8,10,12,14,16,18,20,22,24,26,28,30,32,34,36,38,40,42,44,46,48,50,52,54,56,-1,58,60,62,64,66,68,70,72,-1,-1,74,76,-1,78,80,82,84,86,88,90,-1,-1,-1,92,94,96,98,100,-1,102,-1,-1,-1,-1,-1,-1,-1,-1,-1,-1,-1,-1,-1,-1,-1,-1,-1,-1,-1,-1,-1,-1,-1,-1,-1,-1,-1,-1,-1,-1,-1,-1,-1,-1,-1,-1,-1,-1,-1,-1,-1,-1,-1,-1],"split_conditions":[7.287287E-1,8.623624E-1,6.505249E-1,7.747748E-1,8.763764E-1,3.4734735E-1,5.605606E-1,4.83984E-1,9.434434E-1,8.728729E-1,9.73974E-1,9.9806195E-1,3.4798592E-1,4.944945E-1,1E0,4.3543544E-1,9.895423E-1,9.149149E-1,8.032067E-1,9.5004314E-1,4.944945E-1,8.958555E-1,9.77978E-1,8.9797384E-1,8.813902E-1,8.893894E-1,8.278278E-1,3.838839E-1,-1.1139883E-1,9.8349905E-1,7.842843E-1,2.3573573E-1,6.4819294E-1,9.9071085E-1,5.605606E-1,9.0784216E-1,8.643103E-1,-1.70602E-1,2.0546641E-4,8.096027E-1,4.0945938E-1,-1.5619378E-1,6.999903E-1,9.82983E-1,1E0,9.3832165E-1,5.900901E-1,1E0,1E0,1.3884379E-1,-1.03617445E-1,-1.20961726E-1,8.958555E-1,7.160635E-1,4.079079E-1,7.3927736E-1,3.292074E-1,-1.120546E-1,5.595596E-1,-7.22227E-2,1.232651E-1,1.9462455E-2,1.1465076E-1,-1.3517766E-1,9.254322E-3,-1.1601242E-1,1.3215996E-1,1.6428015E-1,-1.235415E-1,1.15084246E-1,-1.1655531E-1,-7.665699E-2,1.1694598E-1,-1.3057487E-1,1.0082269E-1,-1.6791148E-1,1.1649748E-1,1.0970336E-1,-1.095014E-1,-9.6564285E-2,1.4856802E-1,-1.1100606E-1,1.5904184E-1,1.803676E-1,-1.1861106E-1,-1.11575045E-1,1.0308712E-1,-1.1118733E-1,-1.0238371E-1,-1.10527866E-1,1.2216834E-1,1.3596568E-1,4.7180876E-2,-1.07416786E-1,8.656249E-2,3.905767E-2,-1.1303039E-1,-1.05170585E-1,2.411518E-1,-1.0844453E-1,1.9636061E-2,8.4496215E-2,-1.0557189E-1],"split_indices":[18,30,6,30,30,29,2,0,15,30,30,1,29,29,27,15,10,0,19,13,29,30,30,8,27,30,31,27,0,34,8,19,9,8,2,5,9,0,0,19,3,0,19,31,26,8,18,21,21,0,0,0,30,28,0,35,29,0,28,0,0,0,0,0,0,0,0,0,0,0,0,0,0,0,0,0,0,0,0,0,0,0,0,0,0,0,0,0,0,0,0,0,0,0,0,0,0,0,0,0,0,0,0],"split_type":[0,0,0,0,0,0,0,0,0,0,0,0,0,0,0,0,0,0,0,0,0,0,0,0,0,0,0,0,0,0,0,0,0,0,0,0,0,0,0,0,0,0,0,0,0,0,0,0,0,0,0,0,0,0,0,0,0,0,0,0,0,0,0,0,0,0,0,0,0,0,0,0,0,0,0,0,0,0,0,0,0,0,0,0,0,0,0,0,0,0,0,0,0,0,0,0,0,0,0,0,0,0,0],"sum_hessian":[8.847589E4,6.538573E4,2.3090156E4,5.6851945E4,8.533787E3,1.7875668E4,5.2144883E3,4.272313E4,1.4128817E4,1.5546437E3,6.979143E3,1.5307873E4,2.5677957E3,4.0420137E3,1.1724747E3,3.6849457E4,5.8736724E3,1.4110228E4,1.8589853E1,9.2410657E2,6.305371E2,5.216761E3,1.7623816E3,1.5285568E4,2.2304628E1,1.5030795E2,2.4174878E3,3.8832083E3,1.588055E2,1.1698948E3,2.5799944E0,2.7697135E4,9.152319E3,5.5692744E3,3.0439798E2,1.3626897E4,4.8333078E2,1.7426908E1,1.1629435E0,7.7072864E2,1.533779E2,3.0423965E1,6.0011316E2,7.5152344E2,4.465238E3,3.1926868E2,1.4431129E3,1.5169622E4,1.1594622E2,9.72224E0,1.2582387E1,3.3899162E1,1.1640879E2,2.273926E3,1.4356157E2,7.064254E1,3.8125657E3,1.1399247E3,2.9970118E1,1.5061364E0,1.0738581E0,1.3644942E4,1.4052193E4,1.879674E3,7.272646E3,5.531411E3,3.7863495E1,2.8719135E2,1.7206642E1,1.361441E4,1.2486526E1,1.1870822E2,3.6462256E2,7.563634E2,1.43652525E1,3.291822E1,1.2045969E2,5.5481683E2,4.5296314E1,7.169861E2,3.4537384E1,4.4555376E3,9.700225E0,1.6633696E2,1.5293172E2,1.4046597E3,3.845322E1,1.4794926E4,3.7469638E2,9.906636E1,1.6879854E1,9.436752E1,2.204127E1,2.2666187E3,7.3073635E0,1.0588204E2,3.767953E1,6.911145E1,1.531092E0,3.874457E1,3.773821E3,3.5268965E0,2.644322E1],"tree_param":{"num_deleted":"0","num_feature":"36","num_nodes":"103","size_leaf_vector":"1"}},{"base_weights":[-5.9945565E-3,2.860172E-1,-8.480403E-1,4.3299326E-1,-9.841449E-1,-1.0654315E0,-1.5685748E-1,2.664953E-1,1.1147112E0,-1.0521193E0,-7.83498E-1,-1.0856683E0,-8.3436424E-1,1.0218162E-1,-1.0964811E0,8.7783784E-1,-2.2655856E-3,1.131139E0,-1.0971148E-1,-8.245419E-1,-1.0909792E0,3.484994E-1,-1.0455691E0,-1.0906345E0,-6.184995E-1,2.2454645E-1,-8.8091105E-1,1.4841555E-1,-1.1008825E-1,-1.0996774E0,2.0044503E-1,-7.866675E-1,1.0881873E0,5.586991E-1,-4.3547285E-1,5.2955925E-1,1.1392052E0,-9.4187516E-1,1.2460899E0,-1.097474E0,1.3893158E0,1.6457224E0,-1.1601717E0,-1.103279E-1,1.0036211E0,-1.0922172E0,3.5400644E-2,5.219232E-1,-1.09162465E-1,2.7869651E0,-1.08115114E-1,-1.1339881E0,-7.3211926E-1,-9.322891E-1,1.6859294E-1,-1.1072117E-1,-7.8263015E-1,-7.2589345E-2,1.2890266E-1,-1.1791537E-1,8.003735E-2,1.1187249E-1,-5.727148E-2,-5.6718048E-2,8.009274E-2,-9.853557E-3,-1.594357E-1,1.1395192E-1,-1.7224234E-2,1.140367E-1,-9.946512E-2,-1.0896726E-1,-6.740617E-2,2.7792892E-1,-1.16695784E-1,-1.0982027E-1,8.5013114E-2,-1.0317077E-1,2.1680461E-1,1.8281539E-1,-1.4914535E-1,-1.1668378E-1,-2.3823401E-2,-7.0540145E-2,1.09194815E-1,-1.0992586E-1,-1.0041497E-1,1.2712273E-1,-1.0171189E-1,9.3989514E-2,1.9285481E-2,3.6816898E-1,1.0243262E-1,-1.1042138E-1,-1.3872384E-1,9.449288E-2,-1.03913166E-1,-1.03810884E-1,2.0679148E-1,1.5399285E-2,1.2657478E-1,-1.07150435E-1,6.881821E-2],"categories":[],"categories_nodes":[],"categories_segments":[],"categories_sizes":[],"default_left":[0,0,0,0,0,0,0,0,0,0,0,0,0,0,0,0,0,0,0,0,0,0,0,0,0,0,0,0,0,0,0,0,0,0,0,0,0,0,0,0,0,0,0,0,0,0,0,0,0,0,0,0,0,0,0,0,0,0,0,0,0,0,0,0,0,0,0,0,0,0,0,0,0,0,0,0,0,0,0,0,0,0,0,0,0,0,0,0,0,0,0,0,0,0,0,0,0,0,0,0,0,0,0],"id":16,"left_children":[1,3,5,7,9,11,13,15,17,19,21,23,25,27,29,31,33,35,-1,37,39,41,43,45,47,49,51,53,-1,55,57,59,61,63,65,67,69,71,73,75,77,79,81,-1,83,85,87,89,-1,91,-1,93,95,97,99,-1,101,-1,-1,-1,-1,-1,-1,-1,-1,-1,-1,-1,-1,-1,-1,-1,-1,-1,-1,-1,-1,-1,-1,-1,-1,-1,-1,-1,-1,-1,-1,-1,-1,-1,-1,-1,-1,-1,-1,-1,-1,-1,-1,-1,-1,-1,-1],"loss_changes":[2.047869E4,1.1544855E4,3.2221338E3,6.2908926E3,8.66543E1,7.538086E1,1.2493108E3,7.319496E3,3.965547E2,4.144336E1,4.8302014E2,3.411914E1,6.51626E1,2.23993E2,4.8184814E0,4.763952E3,7.5203926E3,5.1801758E1,0E0,1.7182901E2,6.7353516E1,6.019503E2,1.5736804E2,2.6484375E1,8.692993E1,1.9136118E2,4.671942E1,8.467755E1,0E0,1.7769775E0,4.5384984E0,9.520172E2,6.132344E2,3.6780205E3,6.8180835E3,6.2163742E1,2.755371E1,2.560028E1,1.4419696E2,6.7192383E0,2.3190336E1,9.73114E1,5.96756E-1,0E0,6.3127403E0,8.082031E0,2.964167E1,6.366831E0,0E0,2.663797E1,0E0,1.9798584E0,4.1187033E2,2.4749718E1,6.0769447E1,0E0,1.3100792E1,0E0,0E0,0E0,0E0,0E0,0E0,0E0,0E0,0E0,0E0,0E0,0E0,0E0,0E0,0E0,0E0,0E0,0E0,0E0,0E0,0E0,0E0,0E0,0E0,0E0,0E0,0E0,0E0,0E0,0E0,0E0,0E0,0E0,0E0,0E0,0E0,0E0,0E0,0E0,0E0,0E0,0E0,0E0,0E0,0E0,0E0],"parents":[2147483647,0,0,1,1,2,2,3,3,4,4,5,5,6,6,7,7,8,8,9,9,10,10,11,11,12,12,13,13,14,14,15,15,16,16,17,17,19,19,20,20,21,21,22,22,23,23,24,24,25,25,26,26,27,27,29,29,30,30,31,31,32,32,33,33,34,34,35,35,36,36,37,37,38,38,39,39,40,40,41,41,42,42,44,44,45,45,46,46,47,47,49,49,51,51,52,52,53,53,54,54,56,56],"right_children":[2,4,6,8,10,12,14,16,18,20,22,24,26,28,30,32,34,36,-1,38,40,42,44,46,48,50,52,54,-1,56,58,60,62,64,66,68,70,72,74,76,78,80,82,-1,84,86,88,90,-1,92,-1,94,96,98,100,-1,102,-1,-1,-1,-1,-1,-1,-1,-1,-1,-1,-1,-1,-1,-1,-1,-1,-1,-1,-1,-1,-1,-1,-1,-1,-1,-1,-1,-1,-1,-1,-1,-1,-1,-1,-1,-1,-1,-1,-1,-1,-1,-1,-1,-1,-1,-1],"split_conditions":[7.287287E-1,8.763764E-1,6.4777476E-1,8.509229E-1,9.73974E-1,6.656657E-1,5.605606E-1,3.083083E-1,9.638643E-1,8.958555E-1,9.77978E-1,8.793794E-1,8.646146E-1,4.944945E-1,1E0,5.6282884E-1,5.689439E-1,8.1986624E-1,-1.0971148E-1,9.82983E-1,1E0,9.3832165E-1,5.900901E-1,9.9806195E-1,4.7053906E-1,1E0,3.4734735E-1,3.838839E-1,-1.1008825E-1,9.8349905E-1,8.060363E-1,8.728729E-1,4.3643644E-1,3.2932934E-1,5.733473E-1,9.331034E-1,9.70971E-1,6.1728126E-1,7.3112977E-1,9.5191056E-1,6.722536E-1,7.202202E-1,7.520401E-1,-1.103279E-1,3.6136135E-1,5.869562E-1,9.9825585E-1,2.2522523E-1,-1.09162465E-1,4.3643644E-1,-1.08115114E-1,3.3683684E-1,3.4981424E-1,7.3927736E-1,9.974609E-1,-1.1072117E-1,9.2958724E-1,-7.2589345E-2,1.2890266E-1,-1.1791537E-1,8.003735E-2,1.1187249E-1,-5.727148E-2,-5.6718048E-2,8.009274E-2,-9.853557E-3,-1.594357E-1,1.1395192E-1,-1.7224234E-2,1.140367E-1,-9.946512E-2,-1.0896726E-1,-6.740617E-2,2.7792892E-1,-1.16695784E-1,-1.0982027E-1,8.5013114E-2,-1.0317077E-1,2.1680461E-1,1.8281539E-1,-1.4914535E-1,-1.1668378E-1,-2.3823401E-2,-7.0540145E-2,1.09194815E-1,-1.0992586E-1,-1.0041497E-1,1.2712273E-1,-1.0171189E-1,9.3989514E-2,1.9285481E-2,3.6816898E-1,1.0243262E-1,-1.1042138E-1,-1.3872384E-1,9.449288E-2,-1.03913166E-1,-1.03810884E-1,2.0679148E-1,1.5399285E-2,1.2657478E-1,-1.07150435E-1,6.881821E-2],"split_indices":[18,30,6,35,30,30,2,6,0,30,30,31,30,29,27,3,29,6,0,31,26,8,18,1,3,24,29,27,0,34,8,30,28,29,16,34,29,16,28,19,3,15,6,0,0,7,1,5,0,28,0,29,29,35,1,0,30,0,0,0,0,0,0,0,0,0,0,0,0,0,0,0,0,0,0,0,0,0,0,0,0,0,0,0,0,0,0,0,0,0,0,0,0,0,0,0,0,0,0,0,0,0,0],"split_type":[0,0,0,0,0,0,0,0,0,0,0,0,0,0,0,0,0,0,0,0,0,0,0,0,0,0,0,0,0,0,0,0,0,0,0,0,0,0,0,0,0,0,0,0,0,0,0,0,0,0,0,0,0,0,0,0,0,0,0,0,0,0,0,0,0,0,0,0,0,0,0,0,0,0,0,0,0,0,0,0,0,0,0,0,0,0,0,0,0,0,0,0,0,0,0,0,0,0,0,0,0,0,0],"sum_hessian":[8.328288E4,6.183862E4,2.1444262E4,5.5425727E4,6.412895E3,1.6312959E4,5.1313027E3,4.454722E4,1.0878507E4,4.7869487E3,1.625946E3,1.4995919E4,1.31704E3,4.0230923E3,1.1082104E3,1.3602879E4,3.094434E4,1.079879E4,7.971697E1,7.0141876E2,4.08553E3,3.0559973E2,1.3203463E3,1.4836863E4,1.5905594E2,5.5294815E1,1.2617451E3,3.87505E3,1.480421E2,1.1056377E3,2.5728087E0,1.5258688E3,1.2077011E4,1.3483771E4,1.7460568E4,1.4375983E2,1.065503E4,6.6431995E2,3.7098846E1,4.075416E3,1.0114029E1,1.642658E2,1.4133392E2,1.2846298E3,3.571658E1,1.4816068E4,2.0794413E1,4.6608196E1,1.1244775E2,1.8282036E1,3.701278E1,4.647092E2,7.9703595E2,7.0194885E1,3.8048552E3,1.0775391E3,2.8098593E1,1.5699879E0,1.0028207E0,1.2235367E3,3.02332E2,1.1859291E4,2.1771964E2,2.387112E3,1.1096659E4,1.3528375E4,3.9321929E3,7.657881E1,6.718101E1,1.0649697E4,5.3328805E0,4.2610034E2,2.382196E2,2.2592363E1,1.450648E1,4.0743276E3,1.0882937E0,2.382409E0,7.73162E0,1.5563277E2,8.633017E0,